word,0,1,2,3,4,5,6,7,8,9,10,11,12,13,14,15,16,17,18,19,20,21,22,23,24,25,26,27,28,29,30,31,32,33,34,35,36,37,38,39,40,41,42,43,44,45,46,47,48,49,50,51,52,53,54,55,56,57,58,59,60,61,62,63,64,65,66,67,68,69
公司,0.26463866,-0.5597504,-0.6381016,0.54895246,-0.14773542,0.44697258,0.28782973,-0.23717304,0.4261413,-0.22244585,-0.51404643,-0.48836327,0.4712961,-0.63120615,-0.5815764,-0.36699873,0.5913033,-0.39438373,-0.40220806,-0.19865406,-0.35693577,-0.28924572,-0.40394837,-0.3575399,0.31362906,0.28783727,-0.4352653,0.44265527,0.4309085,0.5173151,0.21216738,0.36018038,0.26373744,-0.5527344,-0.5368507,-0.348943,-0.16372843,0.40464717,0.21750902,-0.44165802,0.3565327,0.51141244,-0.5748237,0.53928983,0.22290164,0.45253223,0.45014057,-0.51711994,0.4340495,-0.15289587,-0.43819115,0.28211743,0.23293743,-0.5770129,0.54492706,-0.36807013,-0.7125497,0.45469368,-0.19560167,-0.37982067,-0.49653006,0.65579224,0.43189847,-0.53746206,0.46008635,-0.37603515,-0.55750465,0.51715267,0.33113202,-0.21442953
公司企业,0.11123553,-0.51239073,-0.324619,0.47790635,-0.07933245,0.3998357,0.2668543,-0.0036687832,0.36727488,-0.13497542,-0.44354013,-0.22672197,0.4547431,-0.5195389,-0.34045523,-0.26158547,0.40198648,-0.31991947,-0.387132,-0.06568284,-0.38895994,-0.051755946,-0.28022033,-0.21279405,0.19939558,0.24397153,-0.23449373,0.23566361,0.27732012,0.5108303,0.10097569,0.23605615,0.12359786,-0.26910657,-0.24087599,-0.29806575,-0.16083324,0.43217742,0.118867725,-0.08081985,0.2410307,0.49335828,-0.51429355,0.43389177,0.36341113,0.31147468,0.3865322,-0.32007128,0.40089798,-0.2712723,-0.40628758,0.32651642,0.25202504,-0.41786224,0.43457198,-0.48407927,-0.41232288,0.4551538,-0.2968105,-0.24393371,-0.47274676,0.41982436,0.43064684,-0.3762512,0.34280694,-0.39552546,-0.27309203,0.39635676,0.27966762,-0.30877903
住宅区,-0.23174389,-0.40268445,-0.41664597,0.40381458,0.3136101,0.47212178,0.26008633,-0.41126534,0.4026718,-0.24669717,-0.5561219,-0.3748283,0.43494982,-0.47369087,-0.2745201,-0.4085249,0.36146915,-0.46291065,-0.39832294,0.4814732,-0.22330515,-0.39628923,-0.36536267,-0.331218,0.44600618,0.41197833,-0.265874,0.30802077,0.39309227,0.3213363,0.41578662,0.089206345,0.33642405,-0.4605808,-0.31138673,-0.28852138,-0.44228822,0.5343023,0.32143217,-0.046877474,0.4789551,0.30427292,-0.25184634,0.36080524,0.3852045,0.43187338,0.27081838,-0.21907473,0.3584674,-0.28787315,-0.3291507,0.45908397,0.3953796,-0.30764228,0.32546496,-0.3817979,-0.38612252,0.3971057,-0.29562145,-0.42665118,-0.36186087,0.16598924,0.35580146,-0.41757563,0.3278768,-0.37490213,-0.2782619,0.3150239,0.2047507,-0.30005425
休闲场所,-0.17231733,-0.19028176,-0.33799902,0.31708136,0.02063562,0.3633655,0.14921679,0.22552721,0.3216404,-0.3123171,-0.21578276,-0.06979336,0.35111415,-0.17233764,-0.250133,-0.37674022,0.19781166,-0.34462777,-0.1972152,0.2640079,-0.27942947,-0.19566166,-0.35669845,-0.31696033,0.21938993,0.4530244,-0.16894206,0.05305554,0.37338957,0.39521766,0.24655229,-0.1779707,0.28365815,-0.16668034,-0.37551647,-0.27455541,-0.20190048,0.153986,0.120486714,-0.43729758,0.35116345,0.09703295,0.12664033,0.3468739,0.2307423,0.37138358,0.33392352,0.020299971,0.08568475,-0.14340252,-0.4040557,0.2708996,0.40086377,-0.033499632,0.16179508,-0.22834429,0.21785009,0.050683748,-0.12263552,-0.13576871,-0.031155169,-0.047694884,0.32019687,-0.23796125,0.38133112,-0.4207421,-0.43994385,0.3194206,0.07461657,-0.3800658
科教文化场所,-0.012554864,-0.4959866,-0.40369654,0.50241596,-0.018164061,0.43014705,0.45023006,0.0169832,0.40788877,-0.19681758,-0.36200684,-0.14786777,0.39412355,-0.4509503,-0.27729392,-0.47203368,0.55824345,-0.34838003,-0.23785287,0.19090644,-0.45986435,-0.114788994,-0.2063021,-0.2997379,0.32964557,0.2740255,-0.33345532,0.35167006,0.36891824,0.5283699,0.2361173,-0.18600388,0.34942698,-0.3888405,-0.19045533,-0.23350036,-0.09803944,0.32262057,0.14212438,-0.20716932,0.35226464,0.31765795,-0.34045354,0.4973619,0.43133265,0.5055762,0.28255036,-0.20243524,0.24464539,-0.1669969,-0.43107814,0.14954309,0.46029168,-0.33226305,0.5145347,-0.27177656,-0.1963639,0.2819016,-0.32762998,-0.4832345,-0.31274733,0.2569173,0.3265705,-0.31322056,0.5866852,-0.4223104,-0.31449986,0.19589105,0.26948488,-0.28181458
政府及社会团体相关,0.0063500963,-0.320194,-0.39222175,0.4187214,0.3608081,0.3332964,0.13062693,-0.21739778,0.4903796,-0.07485807,-0.40212813,-0.212024,0.25046983,-0.29276866,-0.31445807,-0.318321,0.282377,-0.35263312,-0.18061411,0.1793175,-0.302301,-0.057863314,-0.267381,-0.5291336,0.34480524,0.40677744,-0.18785447,0.33967566,0.22990075,0.50025254,0.3380437,0.17329808,0.17365688,-0.5463442,-0.28807735,-0.44326144,-0.22448154,0.4025063,-0.042614944,-0.07741368,0.3816285,0.05012556,-0.31957635,0.41914216,0.23541668,0.13509119,0.13374703,-0.04732575,0.17910185,-0.3200057,-0.37509698,0.3524717,0.28228834,-0.08627844,0.18048033,-0.42739052,-0.005128875,0.25745595,-0.47185183,-0.20774859,-0.33856,0.27565017,0.22747189,-0.27168655,0.4455077,-0.16276398,-0.40178514,0.348692,0.10786201,-0.14417197
政府机关,0.020399937,-0.33331287,-0.5422006,0.349305,0.41830385,0.37136903,0.04520902,-0.3526199,0.599109,-0.096564636,-0.3733559,-0.20377307,0.45449,-0.44912726,-0.38565242,-0.39979166,0.4313206,-0.46503562,-0.3066867,0.33526117,-0.21511543,-0.17353018,-0.3398693,-0.678555,0.5333873,0.32393083,-0.2398282,0.25511268,0.41415185,0.40456587,0.3865944,0.22363314,0.3988963,-0.5848106,-0.28725642,-0.45860645,-0.11724797,0.33384112,0.23177749,-0.3217916,0.18808083,0.111655846,-0.29086474,0.29050893,0.17797402,0.45255905,-0.045605365,-0.106832564,0.27773562,-0.08558063,-0.37191725,0.35262275,0.41875714,-0.15360953,0.3502131,-0.38733047,-0.058466133,0.34651795,-0.41471326,-0.4335165,-0.20020926,0.24409336,0.35336375,-0.25062552,0.46572864,-0.05317282,-0.5243618,0.3828324,0.22937597,-0.040358882
商务住宅相关,-0.27133644,-0.25059986,-0.49236974,0.46499857,0.2972819,0.14494129,0.12634027,-0.0034740278,0.2904114,-0.029065926,-0.25577068,-0.27503884,0.32293877,-0.28136536,-0.21807703,-0.33582348,0.3746813,-0.29321206,-0.38790014,0.24860361,-0.36511445,-0.11950997,-0.31436545,-0.3948903,0.3028459,0.35766625,-0.2275324,0.266456,0.38761145,0.47342527,0.2318207,0.29865563,0.12668869,-0.43774876,-0.18113881,-0.2200806,-0.43550533,0.31076214,0.44693816,-0.027721554,0.33784947,0.30077022,-0.37284505,0.38231766,0.3059969,0.30489272,0.2658406,-0.12653446,0.14566495,-0.30334735,-0.20196083,0.3993358,0.23698038,-0.36948165,0.34265247,-0.30857074,-0.29811928,0.17886245,-0.31892177,-0.32089972,-0.42887712,0.0030419724,0.38962585,-0.08572942,0.24621505,-0.29638782,-0.38306156,0.3897122,0.25982395,-0.23835841
购物相关场所,-0.09780443,-0.360247,-0.5273764,0.4859196,-0.071575135,0.41834238,0.28820986,-0.039093696,0.33461124,-0.36705738,-0.4965469,-0.41651732,0.43546444,-0.27877307,-0.36404788,-0.41598415,0.28749233,-0.56001663,-0.48902464,0.3933888,-0.40231663,-0.22955559,-0.32694894,-0.12825897,0.50163215,0.28674015,-0.36979103,0.31839544,0.59369713,0.38575092,0.48586667,0.19144717,0.35371596,-0.11235556,-0.34196597,-0.43324792,-0.28135994,0.56187165,0.2555557,-0.19859555,0.56419706,0.50004977,-0.22866726,0.33989292,0.4852972,0.13212235,0.41067362,-0.47708806,0.37398335,-0.3337186,-0.42708933,0.33771607,0.24129704,-0.5215373,0.44603604,-0.50408137,-0.19432212,0.30929062,-0.30683494,-0.53349984,-0.35451567,0.40569842,0.44767553,-0.40496397,0.4056033,-0.53016853,-0.46812996,0.46361598,0.32543865,-0.4767658
银行,-0.3335443,-0.5077834,-0.41102183,0.39390394,0.11876607,0.32078603,0.24418852,0.3785113,0.15778798,-0.015625581,-0.39879042,-0.2633055,0.34665242,-0.17010656,-0.09449861,-0.42709637,0.4209194,-0.23330945,-0.23777276,0.10532677,-0.029553644,0.059230324,-0.17618188,-0.3172418,0.16488405,0.39227206,-0.3248526,0.42676574,0.16425642,0.32842496,0.26660702,0.16589275,0.23619342,-0.23366153,-0.47964376,-0.21546601,-0.36630526,0.3646567,0.2985465,-0.22569925,0.18942784,0.005779948,-0.32558352,0.3138069,0.36505145,0.23525006,0.16783392,-0.45761546,0.28117207,-0.0384845,-0.097095214,0.471779,-0.19083533,-0.33465546,0.3536553,-0.23942494,-0.20697814,0.18673636,-0.2593427,-0.16888835,-0.3301175,0.2641781,0.35484433,-0.10169103,0.3613749,-0.31005383,-0.35060728,0.34864283,0.33049718,0.13261767
邮局,-0.013494177,-0.44037113,-0.28540313,0.14764327,0.3842973,0.3514779,0.3445174,0.0997643,-0.17841057,0.13707058,-0.24215579,-0.37179235,0.21617173,0.025297876,0.13517448,-0.30793276,0.31759402,-0.22301674,-0.07931001,0.4498074,0.20444633,-0.007051768,-0.22938879,-0.10335304,0.16007505,0.32644165,-0.12166785,0.37606245,0.33356905,0.18303654,0.20515889,0.3343506,-0.040513128,-0.29112902,-0.41602242,-0.1486204,-0.35004735,0.3615942,0.27289164,-0.12714292,0.010042081,-0.1455998,-0.07338948,0.08487874,0.21609053,0.16096504,-0.1648837,-0.33630314,0.2955255,0.10667235,-0.012660891,0.28497344,-0.24019605,-0.30599627,0.3141787,0.08411269,-0.032491844,0.11141487,-0.18886241,-0.36969382,-0.15389282,0.2628828,0.20723817,0.23584136,0.24425727,-0.19033727,-0.35683966,0.41539878,0.3094953,0.15591456
维修站点,-0.3204984,-0.053535976,-0.40154257,0.3881992,0.008582637,0.33474356,0.20170707,-0.41647172,0.32655653,-0.33947694,-0.17711754,-0.24547927,0.13626024,-0.24209769,-0.35494947,-0.38607872,0.24870515,-0.46213344,-0.2385383,0.45802036,-0.275712,-0.26128712,-0.029431812,-0.08287999,0.43598503,0.32246327,-0.120082304,0.18869497,0.29646844,0.36754048,0.3100614,0.62829137,0.34284317,-0.078396596,-0.31695163,-0.45932055,-0.34641618,0.15724908,0.45606413,-0.10550523,0.24383478,0.087870955,-0.05206607,0.27859497,0.36206412,0.09929266,0.20598954,-0.3850956,0.29225284,-0.36926043,-0.3322218,0.42990834,0.29467264,-0.28445345,0.35254955,-0.2736833,-0.0010306574,0.42469665,-0.10598818,-0.2626232,-0.3697803,0.23139635,0.32667685,-0.15733513,0.18915212,-0.24969245,-0.19694394,0.279213,0.24147615,-0.29344523
综合市场,-0.4851247,-0.17341007,-0.36712736,0.38337734,0.22065166,0.32113928,0.22488697,-0.41038746,0.20713806,-0.36489695,-0.252518,-0.27233985,0.3058489,-0.108929336,-0.37415692,-0.4472052,0.24390802,-0.47144115,-0.33834326,0.49137607,-0.3257227,-0.3476084,-0.30533245,-0.07034856,0.45894104,0.44796628,-0.30082804,0.2994486,0.45490524,0.31507844,0.42043415,0.42003244,0.38679963,-0.24683964,-0.27897894,-0.34587336,-0.52141976,0.33738494,0.49351436,-0.09167246,0.35350764,0.07099964,-0.34014213,0.48556826,0.37411284,0.15899323,0.079425916,-0.21671462,0.39384532,-0.31070092,-0.27519158,0.37109548,0.25740367,-0.2243625,0.28917384,-0.34509775,-0.10405917,0.3615365,-0.29634875,-0.4691605,-0.2858095,0.3647927,0.47257876,-0.17558306,0.24837765,-0.3334496,-0.3703664,0.37788063,0.29538482,-0.34390473
旅馆招待所,-0.38989648,-0.22885917,-0.14456916,0.33201492,0.1470633,0.17342964,0.20951495,-0.30937198,0.0045985803,-0.30313206,-0.19925074,-0.34413052,0.25233236,-0.343293,-0.09185453,-0.30147848,0.17721537,-0.3628704,-0.09635098,0.16629241,-0.1299956,0.05830356,-0.21369906,0.035544693,0.32633173,0.2857058,-0.37126464,0.16958363,0.19495791,0.1389034,0.20365134,0.29446247,0.23100567,-0.26953784,-0.37845606,-0.15343101,-0.21494272,0.26915947,0.45827997,0.12337367,0.31084916,0.10650982,-0.1713061,0.27186027,0.41123098,0.26913986,0.096238546,-0.3275692,0.2450692,-0.10056718,-0.2933851,0.4868431,0.39095047,-0.16386878,0.22264934,-0.23423743,-0.24752055,0.28856277,-0.12287685,-0.26563716,-0.28140554,0.17267823,0.35168615,-0.2518149,0.1281774,-0.23726827,-0.2014491,0.4628119,0.24854374,-0.16553192
生活服务场所,-0.13849956,-0.363055,-0.5443795,0.45061958,0.07843827,0.37004942,0.25631744,-0.21270087,0.39253086,-0.27231583,-0.50675166,-0.39123362,0.4200248,-0.31359667,-0.34594917,-0.48794603,0.494982,-0.48167822,-0.3526735,0.20932913,-0.3513958,-0.35868394,-0.32485694,-0.19950835,0.36733857,0.25735778,-0.2242631,0.55064213,0.49033594,0.42213064,0.47179967,0.29480273,0.50075656,-0.27952966,-0.34669554,-0.51357186,-0.3245108,0.4870727,0.47002065,-0.20250094,0.3418696,0.46474367,-0.3451047,0.5047406,0.38267112,0.34805053,0.15808332,-0.42259726,0.30368635,-0.22667651,-0.4625608,0.30550694,0.27486184,-0.311238,0.32881027,-0.40202397,-0.24916625,0.523878,-0.31014192,-0.39237416,-0.40809488,0.33060557,0.33857524,-0.5347624,0.40010822,-0.4027095,-0.45273584,0.38921165,0.38956118,-0.19727218
彩票彩券销售点,-0.5131943,-0.09955796,-0.22298884,0.3059757,0.37563565,0.12584625,0.21590011,-0.16443118,0.14026304,-0.34694713,-0.14653316,0.072449714,0.23413132,-0.037227653,-0.43921882,-0.34621292,-0.05662529,-0.3056336,-0.11953971,0.36843038,-0.16113819,-0.19877543,-0.31496173,-0.2071422,0.3362705,0.3305686,-0.10982618,0.29845053,0.2470168,0.19845271,0.4896949,0.3892007,0.28886932,-0.05582632,-0.34923446,-0.25292525,-0.2838868,0.18438019,0.3863489,-0.01586029,0.44143808,-0.11131558,-0.092019685,0.39125806,0.32206634,0.30189276,0.16897474,-0.35024157,0.39614528,-0.12530132,-0.23321426,0.42281187,0.12467627,-0.08093241,0.1627821,-0.25905722,-0.077306315,0.27617857,-0.32015863,-0.30033702,-0.3533856,0.13912207,0.085479915,-0.26294932,0.09184633,-0.18327972,-0.3808906,0.3005367,0.13207841,-0.37742877
超级市场,-0.37923753,-0.09492852,-0.31614533,0.2640192,0.09809092,0.2540266,0.23764077,-0.100989416,0.12430784,-0.44197744,-0.2992999,-0.22019023,0.25558978,-0.061929673,-0.21552211,-0.3545081,0.2341392,-0.39733332,-0.26303032,0.26502034,-0.24048418,-0.117118895,-0.30142647,-0.08213424,0.21225491,0.37197945,-0.18257257,0.18024155,0.33109403,0.2702635,0.33359134,0.1884735,0.19059145,-0.09364364,-0.3024143,-0.3509951,-0.17959422,0.16862322,0.3807306,-0.07908072,0.46486303,0.060620725,-0.1458621,0.29350525,0.33021224,0.1473932,0.10115677,-0.17165986,0.3675649,-0.25077486,-0.29559964,0.49560058,0.20516168,-0.07711487,0.38887548,-0.3595928,-0.19335984,0.2594542,-0.35338485,-0.43055654,-0.29586878,0.16920607,0.32944688,-0.2124536,0.021683268,-0.25313592,-0.38299447,0.28005117,0.22401765,-0.32118905
中餐厅,-0.28357357,-0.31038982,-0.4058504,0.50747,-0.062678784,0.25311786,0.368299,-0.11159978,0.20532775,-0.4107912,-0.4937597,-0.3945325,0.4594763,-0.28062528,-0.3593269,-0.50932914,0.29259932,-0.5443078,-0.31344485,0.38529524,-0.4484328,-0.4048168,-0.21861705,-0.13402045,0.50102305,0.47485328,-0.55034053,0.42440397,0.46527725,0.41108304,0.47968087,0.29497647,0.42412716,-0.11641008,-0.32067704,-0.4486106,-0.40908062,0.41007292,0.36144426,-0.39048287,0.5819984,0.23588745,-0.21454209,0.41265604,0.48692614,0.35073647,0.26796198,-0.4100638,0.380171,-0.24708664,-0.3938493,0.34273466,0.36987227,-0.45933074,0.43833786,-0.40320766,-0.34762752,0.25126278,-0.23605314,-0.3471762,-0.40160903,0.22301973,0.5096011,-0.4713906,0.24412811,-0.4570877,-0.3966635,0.4765671,0.39557153,-0.29244393
美容美发店,-0.5118176,-0.1944818,-0.42085123,0.35886002,-0.034505934,0.3760134,0.27530807,-0.22916612,0.31660208,-0.42086977,-0.4450557,-0.25696945,0.40420905,-0.20009539,-0.29292983,-0.564572,0.3646711,-0.42752385,-0.35902572,0.26822144,-0.38581842,-0.41776136,-0.15691711,-0.12286659,0.37333357,0.44829488,-0.25324973,0.4131345,0.38246918,0.47116834,0.36339727,0.12719148,0.26563084,-0.28128242,-0.40605262,-0.45750463,-0.39402145,0.38207233,0.4787643,-0.17724529,0.40288326,0.16162762,-0.23142056,0.3815412,0.54405606,0.35697433,0.31549662,-0.49718583,0.2388328,-0.3924858,-0.3241283,0.34968483,0.16933692,-0.40785396,0.3681991,-0.28089726,-0.19546044,0.3465949,-0.23038417,-0.3700343,-0.32234752,0.21318877,0.35553646,-0.39610964,0.22505108,-0.36879373,-0.4289525,0.30659887,0.43682814,-0.28107214
餐饮相关场所,-0.45922798,-0.2516627,-0.24177623,0.35868996,-0.14521497,0.27930743,0.40240943,0.14795673,0.18952593,-0.50672716,-0.414043,-0.3720686,0.4006915,-0.17739664,-0.33955827,-0.5236122,0.23341095,-0.45366666,-0.28122196,0.43374014,-0.4288748,-0.17452444,-0.29368746,-0.03366148,0.28417692,0.56411636,-0.2796312,0.5476477,0.4910003,0.41910934,0.45266038,0.2093559,0.31129098,-0.15078962,-0.39507568,-0.33676824,-0.38210118,0.3469642,0.31477088,-0.24615264,0.49295405,0.35761824,-0.2836713,0.33873254,0.47600812,0.398719,0.37024957,-0.32765138,0.34063303,-0.22305398,-0.45613554,0.4417823,0.1863027,-0.3842126,0.35678834,-0.20920512,-0.2498695,0.33547425,-0.30209658,-0.37630945,-0.3199617,0.29072103,0.45290077,-0.30793887,0.31738913,-0.30027658,-0.4070199,0.43408728,0.39593506,-0.30513293
专卖店,-0.28474718,-0.10247352,-0.46312344,0.42254078,-0.087237135,0.5274275,0.36482382,-0.01848571,0.33703667,-0.4123769,-0.45915252,-0.22226405,0.50229037,-0.20736992,-0.2315655,-0.4318596,0.49132365,-0.40810704,-0.5586822,0.50494057,-0.553035,-0.4750895,-0.41258517,-0.058220416,0.2957921,0.33719757,-0.38270873,0.36984795,0.46757352,0.3881523,0.49949098,0.37920395,0.48012275,-0.08934517,-0.43248588,-0.45662165,-0.30677238,0.41881993,0.40101808,-0.39184242,0.49752703,0.28514662,-0.16389933,0.4047377,0.32335305,0.28028637,0.1986057,-0.3449571,0.22064254,-0.39793074,-0.39836115,0.574553,0.27571884,-0.39903417,0.40628332,-0.46081156,-0.04153172,0.30735564,-0.101993546,-0.48353738,-0.47932053,0.17051841,0.452083,-0.43315268,0.22391884,-0.49849117,-0.47611105,0.4091674,0.35008603,-0.33491066
洗衣店,-0.5377413,-0.1874975,-0.38062385,0.37123513,0.17655744,0.21028727,0.174693,-0.25887978,0.17568655,-0.27020675,-0.1488651,-0.23312996,0.10776509,0.028625287,-0.28095296,-0.31516698,0.16100225,-0.41954678,-0.3095473,0.3915347,-0.21172461,-0.30456826,-0.087654166,-0.087061524,0.27874666,0.3253411,-0.1697806,0.18275529,0.19050497,0.09296808,0.30876923,0.31439358,0.25198758,-0.24362507,-0.22831649,-0.296162,-0.39424562,0.2891934,0.4225087,-0.17745207,0.3392926,-0.10665721,-0.18425238,0.24297744,0.35506955,0.25542346,0.11172305,-0.27103364,0.37856477,-0.32584718,-0.21147837,0.31856722,-0.06600785,-0.23037021,0.24905285,-0.33819854,-0.11704979,0.30003518,-0.15517792,-0.28083912,-0.13032159,0.15169194,0.25733072,-0.21154074,0.2270369,-0.25649998,-0.1265833,0.200441,0.18699735,-0.25272334
便民商店/便利店,-0.28630725,-0.2928199,-0.39040887,0.42911863,0.17690584,0.24258757,0.35794452,-0.37719768,0.29976076,-0.24805912,-0.49203116,-0.32618,0.29826918,-0.1871147,-0.315979,-0.41065615,0.2124126,-0.48179263,-0.24038179,0.21626851,-0.3761415,-0.1672135,-0.41853908,-0.1991033,0.39239085,0.2674111,-0.24994828,0.25558075,0.3442593,0.40955386,0.4579957,0.34087026,0.23294899,-0.09023587,-0.3274042,-0.39143622,-0.48639515,0.4335249,0.37199777,-0.20192109,0.4276188,0.13518956,-0.29668537,0.3516389,0.45472324,0.2558727,0.09120478,-0.2992117,0.39716482,-0.34282613,-0.32717228,0.48151177,0.28211647,-0.23196113,0.41413826,-0.18006013,-0.27522585,0.23913391,-0.24680337,-0.34114215,-0.42644832,0.23630136,0.38929272,-0.31512487,0.16619508,-0.28132856,-0.39838967,0.4977631,0.39079356,-0.2697264
公检法机构,0.10653826,-0.1934412,-0.47258896,0.24857153,0.38142923,0.28839594,0.1121145,-0.48951173,0.39652258,-0.2568176,-0.4159206,-0.1374568,0.2907028,-0.28132123,-0.18226416,-0.25393233,0.24651921,-0.44139707,-0.26621747,0.2336022,-0.15227412,0.001630488,-0.28025335,-0.57027864,0.37643796,0.3829646,-0.2670017,0.296982,0.26297826,0.34931332,0.26360148,0.07007001,0.2528875,-0.65016186,-0.17084995,-0.2528162,0.118949495,0.28530157,0.086636424,-0.1267665,0.33313107,0.24756664,-0.29832387,0.45401758,0.12224221,0.288976,0.027579458,-0.19261341,0.32142508,-0.12662655,-0.22090158,0.26729077,0.37524867,-0.007608123,0.21971855,-0.32508022,0.0067249946,0.44576138,-0.38219047,-0.29116467,-0.29115164,0.27755886,0.28738794,-0.030570697,0.35723794,0.013267769,-0.31210792,0.36504382,0.20712256,-0.041857265
冷饮店,-0.44715804,-0.113401264,-0.22244509,0.3522332,-0.23040661,0.2504128,0.24829672,0.45327872,0.05730464,-0.5034909,-0.20069577,-0.18593329,0.3818429,-0.060910556,-0.118552454,-0.3311965,0.12789108,-0.4384884,-0.20439626,0.40393507,-0.305326,-0.416249,-0.049747594,-0.124497026,0.18309146,0.28572327,-0.33113676,0.35851687,0.32099113,0.3614971,0.15667638,-0.056082387,0.27161813,0.005165308,-0.40918937,-0.12178475,-0.30811918,0.31239623,0.30540395,-0.27598235,0.31867862,0.11976801,-0.05715274,0.28326002,0.48220152,0.1991595,0.05612514,-0.40552366,0.27622467,-0.26607096,-0.33503377,0.3597341,0.29185623,-0.39707208,0.27611077,-0.30862248,-0.089364104,0.1555518,-0.20793897,-0.34105098,-0.25494146,0.004207,0.4448314,-0.2854908,0.061717227,-0.2595644,-0.29022396,0.2683946,0.4792508,-0.28185734
娱乐场所,-0.44886652,-0.2945828,-0.31505954,0.33392125,0.01047102,0.28563493,0.26605374,0.17249675,0.27642107,-0.10589382,-0.35871094,-0.30725595,0.33786148,-0.44052678,-0.28665945,-0.41821188,0.14841744,-0.4255079,-0.305821,0.2641764,-0.3386906,-0.05079744,-0.25383043,0.023589626,0.23527713,0.43479317,-0.19649881,0.29236066,0.29259297,0.3517061,0.22697702,0.04133917,0.12787353,-0.077281184,-0.4293077,-0.43688124,-0.25868255,0.4405644,0.34364495,-0.19730866,0.49360338,0.23092724,-0.38946813,0.40940893,0.4053353,0.19299173,0.16957396,-0.38305515,0.24499139,-0.07074107,-0.13991618,0.39505872,0.2935838,-0.25032395,0.38573202,-0.32148924,-0.28276607,0.35383275,-0.2519284,-0.41836405,-0.28084067,0.24579185,0.32664466,-0.38985792,0.2696197,-0.46348238,-0.33929574,0.43570548,0.32685164,-0.28271732
公共厕所,-0.15029344,-0.23062,-0.28914154,0.36407304,0.015813887,0.4158585,0.47427455,0.059928685,0.2579077,-0.101651475,-0.5486063,-0.3659774,0.42989743,-0.40206322,0.0011436567,-0.46326268,0.26609284,-0.33942634,-0.4980959,0.20216992,-0.52686936,-0.2823218,-0.528437,-0.06620275,0.18283543,0.35267612,-0.26266673,0.29103968,0.31093067,0.49644464,0.49789608,0.03480408,0.423102,0.33875376,-0.22372404,-0.33229616,-0.3191029,0.1802689,-0.105544284,-0.31976742,0.39203167,0.51725036,-0.07081483,0.40378046,0.14359415,0.17209452,0.47958213,-0.11300586,0.2475076,-0.14894888,-0.5659223,0.31360662,0.7253919,-0.34317243,0.31295463,-0.5129188,-0.1478211,0.13095027,-0.14294675,-0.2842543,-0.13676995,-0.3310537,0.3395644,-0.24015951,0.192123,-0.16053635,-0.46229672,0.30542958,0.5182729,-0.11638811
楼宇,-0.10657815,-0.48323393,-0.3452354,0.36724216,-0.11511266,0.38258547,0.29011256,0.2367326,0.3895527,-0.078281105,-0.4515663,-0.13629538,0.35520786,-0.54895973,-0.21255422,-0.23050326,0.3314594,-0.31837744,-0.3338404,-0.19577348,-0.265554,-0.09364289,-0.22976649,-0.26071244,0.23232153,0.29525262,-0.12625717,0.40407905,0.14042348,0.35592565,0.01084578,0.106605336,0.07473102,-0.34314463,-0.3083502,-0.23959902,-0.045029342,0.28591448,0.16949299,-0.2203441,0.2362813,0.37664247,-0.432253,0.43369204,0.30068856,0.35829467,0.32334358,-0.4135225,0.29233336,-0.25691384,-0.3364473,0.31923446,0.11916902,-0.29372907,0.36669055,-0.4018009,-0.32996374,0.4533047,-0.4483611,-0.19243942,-0.45869073,0.27871895,0.3769398,-0.41808948,0.41389897,-0.32552034,-0.33781385,0.28095546,0.3645454,-0.06094805
快餐厅,-0.4792186,-0.16519377,-0.2997018,0.35037276,-0.23017728,0.20398936,0.18312389,0.23853457,0.28275466,-0.43487036,-0.3605463,-0.29224068,0.29847455,-0.23516,-0.27161837,-0.37059355,0.19131395,-0.3917993,-0.29617822,0.3874515,-0.3668186,-0.19359106,-0.17623755,-0.12392137,0.31862158,0.42982274,-0.33526057,0.34466752,0.3101705,0.43229824,0.4049775,0.19001159,0.23206098,0.053931553,-0.3673253,-0.14095142,-0.36828268,0.41547412,0.31554687,-0.35788387,0.44470432,0.16860421,-0.07513588,0.33224428,0.4033212,0.40084898,0.22053778,-0.26828006,0.4087935,-0.19635239,-0.3446745,0.46015215,0.37991893,-0.26284242,0.2767052,-0.39175677,-0.25729245,0.31851298,-0.22526026,-0.2919731,-0.46839187,0.1560642,0.27724284,-0.28605887,0.17235905,-0.2549946,-0.47727227,0.26838872,0.5129174,-0.2677506
学校,-0.13341078,-0.43851143,-0.44941807,0.38313812,0.3247627,0.3336482,0.47259808,-0.3707556,-0.02668121,-0.04633449,-0.5425511,-0.37773886,0.301489,-0.39281824,-0.57138,-0.3687876,0.4441551,-0.37823763,-0.38218904,0.34585065,-0.22825819,-0.13822436,-0.2763953,-0.4334699,0.21961018,0.08922467,-0.31492966,0.26440206,0.4773732,0.36762482,0.22429419,-0.33668733,0.24945308,-0.54382503,-0.2664688,-0.40823674,-0.053083476,0.2842912,0.3413766,-0.10233835,0.3584985,0.2719621,0.009355305,0.4533413,0.38950062,0.39279976,-0.03685242,0.113499254,0.20978215,-0.32759506,-0.35084936,0.20025809,0.58950835,-0.14207314,0.33675498,-0.13394317,-0.14106739,0.26397294,-0.2534585,-0.43801633,-0.27141768,0.12772183,0.3593871,-0.18767938,0.5850611,-0.26520956,-0.35958946,0.2986704,0.2984328,0.030389352
运动场馆,-0.3574451,-0.5323693,-0.42042422,0.22756748,-0.10386907,0.35807267,0.2770561,0.08587165,0.24499734,-0.24850428,-0.48409742,-0.19602731,0.4503492,-0.3611818,-0.29597706,-0.4664701,0.4675776,-0.35259032,-0.29261035,0.25548527,-0.14591809,-0.19579998,-0.19036803,-0.27586246,0.18241096,0.4829299,-0.09224894,0.23724437,0.36826974,0.42195073,0.16593683,-0.24435006,0.30643332,-0.12856574,-0.3754936,-0.24185154,-0.1472155,0.47171783,-0.086102046,0.026670303,0.467588,0.20234095,-0.12600043,0.4151639,0.2669633,0.41713217,0.32216597,-0.28821477,0.26773077,-0.18919176,-0.31413326,0.3221433,0.23442073,-0.13778675,0.3343807,-0.11809258,-0.31245506,0.34970015,-0.122390606,-0.29077628,-0.3108452,0.17381701,0.4206106,-0.27736098,0.52296567,-0.45245552,-0.21154487,0.36516804,0.2418505,-0.25558138
充电站,0.08954362,-0.31049195,-0.22614145,0.3659014,-0.07332672,0.35218155,0.27827352,0.18735637,-0.10531984,-0.15501916,-0.39383677,-0.39796075,0.31415355,-0.3415719,-0.27060515,-0.116342045,0.3269686,-0.17417122,-0.3716849,-0.12858143,-0.31390014,0.12839441,-0.12740348,-0.32476953,0.18636295,0.36111712,-0.26932693,0.1362707,0.18987773,0.4604833,0.09076118,0.014296129,0.042668045,-0.14950985,0.031554602,-0.2830118,-0.061378557,0.24691173,0.112392105,0.24715851,0.2224187,0.20067097,-0.27006656,0.290277,0.21630418,0.17096016,0.36721158,-0.25842094,0.3594867,-0.36868608,-0.08588122,0.07990865,0.27628878,-0.06165854,0.31395054,-0.12957221,-0.35969844,0.33168715,-0.14659974,-0.08082583,-0.3304816,0.16448736,0.23101427,-0.11989167,0.31060386,-0.33199537,-0.22246923,0.32132694,0.14456625,-0.20109275
传媒机构,0.14820927,-0.28810158,-0.33873987,0.28416723,-0.25150317,0.26875892,0.09329341,-0.13365346,0.35464022,0.17314829,-0.14158669,-0.21826622,0.1244192,-0.35634494,-0.26898283,-0.09945861,0.41184884,-0.32539505,-0.053801194,-0.34624738,-0.05647074,-0.14942981,-0.16464573,-0.035014816,0.0439436,0.09700893,-0.341371,0.04289544,0.2983024,0.29072154,0.054505944,-0.36623776,0.028374346,-0.59945774,-0.25462458,-0.104524344,0.26263982,0.22763437,0.031110086,-0.22589375,0.23611987,0.36848122,-0.17345847,0.3653591,-0.047886755,0.6395874,-0.14653006,-0.30955535,0.2666374,-0.21144809,-0.30895182,-0.007906431,0.08358683,-0.3817345,0.16385697,0.05084016,-0.30145645,0.4451605,-0.3640716,-0.32953694,-0.37341586,0.23401798,0.2773924,-0.043910258,0.45065558,-0.08545701,-0.43288654,0.2999373,0.38573325,-0.22289726
产业园区,0.13550773,-0.44503468,-0.3680498,0.45002902,-0.092827365,0.15584144,0.36000144,-0.112833515,0.18841109,-0.10507592,-0.33282995,-0.2431924,0.3274454,-0.45671347,-0.3389824,-0.049746558,0.30777872,-0.1343561,0.0775152,-0.31070217,-0.3347423,-0.11824134,-0.14615792,-0.37048608,0.14870219,0.13223372,-0.15623438,0.30675113,0.11173971,0.41864684,-0.051514708,0.2923938,-0.2657876,-0.3119835,-0.026569724,-0.09168945,-0.20601104,0.21508065,0.06085585,-0.050109737,0.21082044,0.39531153,-0.4130171,0.40620792,0.18999691,0.41600797,0.20449191,-0.11790786,0.37932244,-0.4082833,-0.43753743,0.11684851,0.24678692,-0.11987257,0.4019451,-0.39063781,-0.43343663,0.301794,-0.25826475,-0.19033109,-0.43442863,0.2866751,0.0998818,-0.25804242,0.36936176,-0.07778803,-0.32006097,0.45826373,0.18811458,-0.4006002
工厂,0.2868253,-0.20559815,-0.14719881,0.36534607,0.16934109,0.34584975,0.086400606,-0.75009406,0.06732706,-0.14791727,-0.23976937,-0.3490132,0.21488759,-0.15593961,-0.17936046,-0.06254414,0.30440027,-0.19851965,-0.084795244,0.15405159,-0.19801398,-0.12007856,-0.32567284,-0.0045124516,-0.12221516,-0.00891412,-0.17558832,0.0060410127,0.36497897,0.38583368,0.097293794,0.4749422,-0.21939957,-0.28413522,-0.07994961,-0.21985179,-0.27627754,0.08311617,-0.06354602,0.0124993995,0.2249653,0.2600395,-0.4713557,0.41194844,0.11058297,0.36589694,0.25509888,-0.19406936,0.026855879,-0.12555839,-0.24357185,0.07244133,0.25461876,-0.2817227,0.35129458,-0.22407937,-0.23516864,0.3709252,0.059670314,-0.066179365,0.011842192,0.25580725,0.06477127,-0.193906,0.06640094,-0.30063862,-0.41954994,0.4568616,0.08709363,-0.39769065
服装鞋帽皮具店,-0.61044025,0.106700405,-0.30914447,0.44079942,-0.3159374,0.552803,0.1566516,0.35695672,0.14600086,-0.42842376,-0.5040873,-0.109942436,0.47606733,-0.35143322,-0.011120413,-0.38465405,0.28114688,-0.4623984,-0.41930237,0.46889758,-0.32832885,-0.4670806,-0.35859907,-0.11742968,0.40149915,0.39705867,-0.30154616,0.22990635,0.47954983,0.55033994,0.44648254,0.21012178,0.51613545,-0.1670925,-0.43369025,-0.41779813,-0.25560224,0.33872366,0.3558218,-0.48318326,0.3367616,0.3224483,-0.056151602,0.3412716,0.4252289,0.06341616,0.37590325,-0.3877764,0.337418,-0.5044143,-0.33375943,0.34935284,0.26474005,-0.48267192,0.4958814,-0.48799777,0.034555648,0.34277022,-0.3158368,-0.43623367,-0.3704401,-0.0040555634,0.3093449,-0.21712993,0.34301674,-0.3477146,-0.44719428,0.37949347,0.5182961,-0.39357054
医疗保健服务场所,-0.51649684,-0.02411105,-0.29883337,0.22781959,0.4919502,0.21206304,0.40918052,-0.23241612,0.361973,0.2200317,-0.5039197,-0.25538233,0.12015262,-0.40568855,-0.2660483,-0.33555275,0.1543657,-0.3660134,-0.34715444,0.11020954,-0.32635748,-0.44680005,0.016790895,-0.4440399,0.28378808,0.09630597,-0.2508983,0.43326837,0.43532044,0.37623632,0.31125695,-0.09256148,0.5023328,0.073876485,0.0011179224,-0.3873821,-0.21230984,0.12107532,0.22608179,0.095334455,0.3636683,-0.08522078,-0.3894931,0.4174377,0.39369714,0.20435302,0.5092921,-0.15904792,0.40733165,-0.2978524,-0.3331477,0.40941066,0.04292626,-0.2917226,0.3520143,-0.30005947,-0.04124019,0.41679513,-0.41934794,-0.3727287,-0.20345022,0.07027118,0.36989677,-0.21286541,0.3375438,-0.16463555,-0.25745773,0.29327124,0.2624485,-0.117270045
洗浴推拿场所,-0.48909375,-0.19427007,-0.28993067,0.3529445,0.17616296,0.29917115,0.23141024,-0.28729588,0.08951736,-0.30047908,-0.33069605,-0.17093255,0.32406774,-0.2367724,-0.316835,-0.35959324,0.11211972,-0.32061002,-0.19697696,0.25096577,-0.21663314,-0.2744943,-0.15431574,-0.28560627,0.24674472,0.4489613,-0.2660161,0.19712877,0.35708696,0.25377467,0.32496238,0.21843389,0.34530187,-0.10358922,-0.32872757,-0.392799,-0.26878643,0.44540524,0.4043408,-0.021638926,0.46807027,-9.796396e-05,-0.17297617,0.34142825,0.47895727,0.28678247,0.19385375,-0.40632558,0.23766033,-0.29438147,-0.059638403,0.50735766,0.032941043,-0.20942824,0.3240949,-0.28717873,-0.2722447,0.2986803,-0.1073975,-0.36068523,-0.2880401,0.20943812,0.34944522,-0.34739038,0.17684767,-0.34207493,-0.25759083,0.2613985,0.23231083,-0.19662693
家居建材市场,-0.19497085,-0.13038215,-0.40642828,0.510606,-7.735938e-05,0.5452473,0.1411067,-0.48457655,0.29316694,-0.38960317,-0.4093207,-0.38318586,0.328984,-0.12113251,-0.3336354,-0.28825605,0.22667068,-0.35076153,-0.3540138,0.35850698,-0.40540874,-0.20104788,-0.32203725,-0.11525492,0.28880933,0.3810283,-0.24722046,0.20978591,0.5367975,0.4698696,0.45427623,0.537715,0.3485836,0.10224983,-0.42423028,-0.58036435,-0.36020243,0.37576085,0.42611665,-0.2963497,0.330665,0.25256962,-0.40388352,0.52220464,0.30519164,0.33574957,0.32887805,-0.29831874,0.13574898,-0.5207161,-0.39261538,0.33630365,0.30943164,-0.3640686,0.47676414,-0.3651332,-0.2831559,0.37195528,-0.32328275,-0.489114,-0.35740253,0.25886035,0.44167215,-0.35072103,0.07585334,-0.3064173,-0.25027144,0.57908225,0.119711995,-0.42601514
汽车养护/装饰,0.16364548,-0.26488116,-0.38450176,0.13634029,0.0031052977,0.40626138,0.06191881,-0.52579856,-0.08680019,-0.1833333,-0.22433195,-0.3941903,0.3032087,-0.3116049,-0.36801916,-0.30998904,0.33794963,-0.26371792,-0.26530904,-0.048587278,-0.19589019,0.081139386,-0.13731663,-0.18289107,0.33098215,0.26856053,-0.16048458,0.11313696,0.37015498,0.3513425,0.4106269,0.41568136,0.2464767,0.32138258,-0.120318875,-0.37983048,-0.5029061,0.30689842,0.09742053,0.27914625,0.37246266,0.19901752,-0.25172317,0.23204839,0.31956175,0.22367355,0.23973647,-0.14428298,0.19553111,-0.31708843,-0.26866406,0.3920403,0.27665785,-0.033809233,0.15345442,-0.1848123,-0.33221084,0.42779532,-0.13581733,-0.21191864,-0.14170738,0.15019168,0.14137863,-0.21586774,-0.0038659573,-0.43171042,-0.31850624,0.33216584,-0.1828301,-0.44339663
汽车服务相关,0.3422053,-0.21650621,-0.4197139,0.104335,-0.09433916,0.4053988,0.08397372,-0.52728975,-0.12378524,-0.25944075,-0.3049806,-0.35574785,0.29685855,-0.14986926,-0.41250268,-0.3760984,0.35351628,-0.20457557,-0.33466852,-0.1560924,-0.34470665,0.18787411,-0.18510348,-0.13780765,0.4264862,0.21761163,-0.055156246,0.105595484,0.27887958,0.28995335,0.4615499,0.6374606,0.26918635,0.26842916,-0.14699158,-0.29985282,-0.43617502,0.37187016,0.049284935,0.26199892,0.19546305,0.21303248,-0.42369592,0.19681624,0.14589255,0.15998262,0.20612143,-0.05029497,0.092339434,-0.27665234,-0.21018133,0.4428547,0.3380866,-0.10634411,0.15185903,-0.3359563,-0.4825287,0.2737069,-0.3383843,-0.17788282,-0.2735815,0.19248453,0.40267736,-0.2725363,-0.01968326,-0.42071605,-0.21594796,0.28772256,-0.066052824,-0.40731385
汽车维修,0.37834162,-0.30920175,-0.39782855,0.40270793,-0.070169106,0.2067731,0.19662791,-0.6313213,0.14339665,-0.20350905,-0.20824328,-0.2399992,0.2345122,-0.30207038,-0.31359679,-0.12304254,0.30602035,-0.28420892,-0.3159879,-0.10782253,-0.24364892,0.3108753,-0.20859617,-0.016341671,0.26602855,0.047075413,-0.20117553,0.0919629,0.3203165,0.4860744,0.4043106,0.60382175,0.20321363,0.3959181,-0.112394094,-0.2911346,-0.53448474,0.1488232,0.074493654,0.22876237,0.33240655,0.1635571,-0.27122813,0.16534902,0.24501824,0.022999238,0.1768374,-0.31076723,0.21666327,-0.37778077,-0.30876726,0.24683294,0.47709215,0.0033967197,0.18687864,-0.1925081,-0.5484649,0.34069955,-0.08565307,-0.22715485,-0.15619779,0.16303387,0.13356076,-0.23898017,-0.012052454,-0.2720033,-0.25991154,0.2396909,-0.19246253,-0.32599467
汽车销售,0.61358225,-0.52897775,-0.3298456,0.23093736,-0.034429103,0.058532473,0.108894065,-0.13714859,-0.060044177,-0.25756282,-0.14835721,-0.3184618,0.3089736,-0.39185008,-0.34532437,-0.0784744,0.3125593,-0.19399087,-0.29238757,-0.29379106,-0.15775819,0.20717892,-0.18692337,0.02640583,0.24604131,0.14720783,-0.17020208,-0.081350915,0.38953346,0.44675457,0.14517641,0.42786378,0.07743232,0.28773487,-0.13290732,-0.3222515,-0.054478288,0.3531941,0.20272338,0.32904953,0.17759506,0.383695,-0.36419228,0.17453,0.05858457,0.006503502,0.15723169,-0.22024488,0.22130165,-0.12876993,-0.25381163,0.12843753,0.27212667,-0.014744925,0.061207823,-0.26305044,-0.5861344,0.43853074,-0.23467684,-0.18317333,-0.07519685,0.18790457,0.1975597,-0.40614694,-0.049768176,-0.48417085,-0.28296548,0.30933702,-0.20850313,-0.36012417
科研机构,0.07756352,-0.3177479,-0.47110838,0.35751992,0.371335,0.21430945,0.42860043,-0.23602983,0.07019379,0.3109939,-0.4521988,-0.23420377,0.17481214,-0.46524462,-0.35417283,-0.009881154,0.39904818,-0.2948511,-0.10946266,-0.11641957,-0.2170642,-0.15447243,-0.3248585,-0.41554344,0.22441705,-0.04267253,-0.17026073,0.2457292,0.45395243,0.3311323,-0.10430932,-0.5751033,0.21811157,-0.7312219,0.047002982,-0.0075514917,0.420314,0.011803597,0.1652602,0.12129272,0.071807384,0.30923268,-0.06648736,0.41198352,0.18486446,0.3821578,0.14875552,0.0462621,0.28087378,-0.24283847,-0.38896713,0.26300424,0.28534216,-0.27894554,0.45938414,-0.2224204,-0.27360046,0.31714052,-0.28960866,-0.43089727,-0.4053535,0.2125315,0.27608967,-0.16139789,0.5847299,-0.1393242,-0.47747704,0.33064497,0.47558412,0.23008296
汽车综合维修,0.27658257,-0.16896275,-0.28031945,0.23582661,0.13145742,0.24856238,0.20746392,-0.6616835,-0.027144846,-0.17704512,-0.11951466,-0.25877443,0.29946458,-0.13510026,-0.5231081,-0.2742234,0.20475462,-0.3691392,-0.33243674,-0.047492553,-0.26986775,0.13548703,-0.20767915,-0.03465399,0.37402922,0.17596501,-0.20212801,0.14031969,0.2310516,0.30247846,0.34974808,0.58396876,0.11134575,0.32794106,-0.18797646,-0.41500327,-0.5181401,0.17616343,0.040712237,0.31837985,0.28913057,0.10328579,-0.34309512,0.0871613,0.19958921,0.13979886,0.25140324,-0.12885997,0.14821866,-0.14441723,-0.23516947,0.20960394,0.37421876,0.001595404,0.119214304,-0.19861093,-0.4464919,0.44051102,-0.06806016,-0.26544046,-0.2296631,0.094525754,0.17371708,-0.13670564,-0.17161214,-0.27303284,-0.27557725,0.34684372,-0.22576281,-0.23501226
物流速递,0.097159676,-0.42358282,-0.3673161,0.46774027,0.11939414,0.44339484,0.35669634,-0.50789547,0.20874217,-0.06692259,-0.35423613,-0.46958774,0.45474574,-0.3389691,-0.28008014,-0.28430462,0.39702266,-0.20815803,-0.07707528,-0.06654465,-0.22029118,-0.16305375,-0.3157018,-0.13516867,0.20360532,0.31046784,-0.18546551,0.16746718,0.32095015,0.33121914,0.22178602,0.5028043,0.058149405,-0.28985214,-0.39636958,-0.4158412,-0.41284293,0.38344938,0.15322858,-0.14066178,0.29719496,0.23691902,-0.3455581,0.20644146,0.24237382,0.4794995,0.11875275,-0.41588983,0.3670457,-0.21471524,-0.34824288,0.46860754,0.06216188,-0.46972626,0.3200388,-0.3572393,-0.32252315,0.4730361,-0.3675974,-0.295785,-0.3499955,0.19451508,0.33142856,-0.30215743,0.26057965,-0.255205,-0.35857517,0.30171776,0.20480877,-0.34799135
住宿服务相关,-0.5740776,-0.43906152,-0.3383197,0.3292186,0.17085776,0.17877814,0.2241327,0.096092835,0.24170986,0.002589235,-0.43654704,-0.31185237,0.33052745,-0.46900204,0.023358889,-0.40947717,0.21510921,-0.2878813,-0.24497747,0.22496298,-0.14299312,-0.19488809,-0.31395978,-0.10544637,0.15124461,0.4888711,-0.18424186,0.32621777,0.15370591,0.24679923,0.031082269,-0.14501244,0.30023205,-0.48456296,-0.20379667,-0.24219963,-0.23564884,0.38140887,0.31895393,-0.0034672879,0.47794142,0.33381656,-0.26011744,0.20226966,0.39330465,0.32014155,0.07799837,-0.3179231,0.06692492,-0.23040809,-0.061934207,0.40730262,0.28272444,-0.33942062,0.24467728,-0.2411164,-0.14343317,0.29973856,-0.21316689,-0.32687518,-0.21004173,0.2302807,0.41120124,-0.24667314,0.13836099,-0.25000829,-0.29719192,0.42336988,0.25226995,-0.2452386
金融保险服务机构,-0.0790434,-0.41664523,-0.29482576,0.44809955,-0.3101933,0.34672052,0.13586165,0.33927003,0.36091983,0.035139065,-0.38321695,-0.213682,0.31427896,-0.45920116,-0.3203144,-0.3708301,0.43776774,-0.26652008,-0.16172315,-0.47160304,-0.3315096,-0.0128758615,-0.12615201,-0.25008425,0.27822042,0.20089707,-0.33004713,0.4309687,0.29062465,0.32872152,0.1376458,0.26363847,0.2948377,-0.31331527,-0.4601888,-0.15585361,-0.1418471,0.45274025,0.061982475,-0.2222821,0.30839863,0.38806856,-0.44649887,0.4340325,0.35243863,0.1928604,0.15755881,-0.5324719,0.38319084,-0.22937676,-0.46517795,0.3501755,-0.13123702,-0.54870534,0.4341402,-0.34143263,-0.4379328,0.3467913,-0.42312223,-0.24895455,-0.4042256,0.48440927,0.34223896,-0.42297977,0.5038542,-0.123292655,-0.3694931,0.269012,0.18469682,-0.07859706
宾馆酒店,-0.34129494,-0.3635299,-0.3509913,0.35652667,0.05909571,0.27880496,0.28029236,0.058457557,0.14346135,-0.0013955776,-0.37474662,-0.1899097,0.36316746,-0.44909286,-0.18377887,-0.2890476,0.21163385,-0.3634025,-0.25390998,0.029831287,-0.24447826,-0.025174709,-0.38522685,-0.08859694,0.28037226,0.46306127,-0.28870788,0.37778813,0.3295261,0.3894306,0.15581308,0.034317363,0.24750051,-0.23848893,-0.3281111,-0.341898,-0.3651078,0.4086886,0.38523895,-0.1723985,0.50249755,0.1904883,-0.233418,0.3021121,0.47779837,0.36809936,0.19523582,-0.34376526,0.1714677,-0.14883186,-0.2822875,0.35781735,0.2799095,-0.19250026,0.33653772,-0.29271895,-0.2875747,0.34991455,-0.32964748,-0.39261696,-0.34021792,0.07605803,0.40460932,-0.2549128,0.07847473,-0.27486384,-0.1856159,0.3463508,0.29940817,-0.22933842
医药保健销售店,-0.5988832,-0.085334584,-0.36499953,0.3167748,0.14929496,0.33116323,0.38591325,-0.24281642,0.17507796,-0.2827502,-0.27295202,-0.18590415,0.12882584,-0.24442872,-0.23588762,-0.38883132,0.19870262,-0.42392117,-0.40158322,0.20791894,-0.25671375,-0.34857106,-0.011201546,-0.23480785,0.31893927,0.31218958,-0.2575246,0.2895987,0.4162229,0.3437664,0.2742262,0.27989414,0.48962277,0.037593875,-0.340634,-0.2813836,-0.305839,0.2994356,0.33736008,-0.14537969,0.34579518,0.07298578,-0.19629893,0.37569952,0.33786276,0.15804408,0.12585075,-0.18913938,0.32999226,-0.2666754,-0.11322542,0.49081647,-0.043997984,-0.3278345,0.35630533,-0.3284628,-0.14901233,0.41440636,-0.2410588,-0.36811775,-0.3137245,0.116568565,0.27214566,-0.111670524,0.04556953,-0.26244974,-0.3106889,0.38730454,0.25644,-0.2577076
家电电子卖场,-0.35058093,-0.11659601,-0.45904234,0.25089964,-0.18770161,0.35543135,0.23601964,-0.13069195,0.16048267,-0.4397331,-0.22405468,-0.020730296,0.2775065,-0.105823904,-0.34616187,-0.30579,0.33566296,-0.47653818,-0.35390002,0.34248558,-0.2852503,-0.43073934,-0.09822038,-0.2324476,0.4940786,0.3089324,-0.33484405,0.1990436,0.3314386,0.40195882,0.24469702,0.49957985,0.1557357,-0.010631286,-0.29661256,-0.42745447,-0.27483344,0.15545398,0.2274723,-0.26374784,0.349532,0.29377538,0.04704039,0.15570955,0.5474513,0.03939599,0.27971518,-0.4285522,0.28121752,-0.38610572,-0.2980976,0.41377112,0.37031007,-0.520926,0.40819657,-0.43354148,0.07969876,0.325571,-0.3347286,-0.15106729,-0.29637134,0.05249921,0.39953747,-0.033575013,0.107732266,-0.38528043,-0.26579463,0.2391485,0.301749,-0.48004586
中介机构,-0.55658376,-0.27785286,-0.3727587,0.36648726,0.17749962,0.34638536,0.3181346,-0.25113553,0.16322339,-0.34524566,-0.41848868,-0.19091523,0.26904073,-0.16448757,-0.36220837,-0.4095649,0.26626712,-0.49987954,-0.29382575,0.32584375,-0.26434976,-0.37379223,-0.06566355,-0.27642137,0.36703598,0.28412366,-0.34223396,0.32253048,0.26441815,0.3109939,0.4169277,0.35035968,0.3725887,-0.3107882,-0.32139567,-0.36319703,-0.43631807,0.39571542,0.49673128,-0.28455645,0.3736651,-0.00593286,-0.23830748,0.33591205,0.42249584,0.23270752,0.10727653,-0.32485473,0.41893172,-0.26430804,-0.21665838,0.5354135,0.12442895,-0.30765492,0.34685963,-0.25213796,-0.34373716,0.47611746,-0.31383133,-0.28304845,-0.33308312,0.27614602,0.3526731,-0.40431523,0.14219943,-0.18189153,-0.290984,0.28315097,0.20615108,-0.25663942
培训机构,-0.29174703,-0.38949865,-0.40303344,0.35065275,-0.30405527,0.36958587,0.34145617,0.097370446,0.30892152,-0.31590372,-0.30235875,-0.10580388,0.4515079,-0.3065551,-0.46915674,-0.43924665,0.44966823,-0.40670136,-0.2090736,0.010618506,-0.2680389,-0.13973078,-0.10806699,-0.30424166,0.40980744,0.31394768,-0.35365647,0.2827166,0.2707942,0.32914895,0.24511427,-0.19910997,0.38105208,-0.13259071,-0.33680734,-0.4436587,-0.11389985,0.34906667,0.14563388,-0.156798,0.32137185,0.34465155,-0.19413164,0.37426084,0.3446854,0.55916536,0.024886983,-0.25706965,0.31132412,-0.2201111,-0.39363894,0.36945134,0.14427805,-0.20662624,0.39643514,-0.13869466,-0.13777143,0.54059744,-0.26254636,-0.38483167,-0.15220799,0.3424746,0.30218774,-0.3565051,0.4750027,-0.3161043,-0.31903106,0.15722975,0.48957717,-0.20074023
糕饼店,-0.5823721,0.01857401,-0.24083659,0.22182608,-0.15314412,0.33128196,0.33425498,0.29015297,0.19908807,-0.5002841,-0.39651543,-0.16536075,0.29606634,-0.08016455,-0.23957458,-0.2905179,0.16391432,-0.35599643,-0.24772981,0.38952193,-0.37789565,-0.40295553,-0.14724904,-0.11421749,0.10096152,0.36782587,-0.34520465,0.18776917,0.15162398,0.25368565,0.39276844,-0.008976677,0.20708,-0.08153373,-0.32636943,-0.18711017,-0.45834953,0.3851906,0.26939288,-0.30452973,0.38127762,-0.05262696,-0.09043461,0.124683626,0.38583803,0.07690783,0.14621612,-0.1548119,0.3427182,-0.27467892,-0.17920929,0.41646117,0.14485869,-0.2754112,0.15532131,-0.21785271,-0.21236064,0.22820884,-0.24327016,-0.45462734,-0.23308167,0.12280179,0.3100531,-0.2707301,0.186052,-0.2344248,-0.41156277,0.26016602,0.2843114,-0.3098019
摄影冲印店,-0.5050513,-0.1742436,-0.24460971,0.31823957,-0.05209937,0.22957262,0.36670303,0.10004717,0.31437936,-0.33529225,-0.31517512,-0.02100927,0.41927505,-0.06685132,-0.070585795,-0.22925925,0.17024297,-0.38747895,-0.21070093,0.09502938,-0.10075385,-0.27943558,-0.113427505,-0.22215575,0.36661088,0.21116939,-0.28830814,0.26000008,0.22616214,0.29261202,0.24850741,0.22649267,0.13200387,-0.31456077,-0.23882666,-0.26708955,-0.1348704,0.29095218,0.32779178,-0.11007267,0.41513848,0.14553294,-0.24931613,0.22141838,0.2307764,0.42762333,0.28463453,-0.27271074,0.2502818,-0.3485422,-0.22523764,0.25728354,0.23161042,-0.25298065,0.29338184,-0.16239941,-0.23669429,0.2736454,-0.20278999,-0.26928067,-0.16318685,0.3256253,0.2062924,-0.1617521,0.15913983,-0.23909205,-0.4071929,0.33311707,0.16426215,-0.388502
驾校,-0.033558905,0.06394673,-0.2515869,0.1740001,-0.012963414,0.08265431,0.015463989,-0.50692993,-0.16451481,-0.22496541,0.0260315,-0.07907892,0.0066853203,0.22240847,-0.40839326,-0.12887284,0.11678453,-0.1383484,-0.18563104,0.11686808,-0.25679258,0.008152077,-0.065825686,0.14194804,0.25912762,0.056243822,-0.3234734,-0.018619927,0.1481114,0.18721412,0.3640216,0.5460488,0.17790759,0.038488895,0.027072698,-0.2507683,-0.29051942,0.20707816,0.29040402,-0.050934352,-0.025804108,0.25812083,-0.2798099,0.044604905,0.16547282,0.030046456,0.057603605,-0.020971194,0.060622104,0.024839148,-0.10913585,-0.06149277,0.11551416,-0.18273298,0.027796865,-0.23260814,-0.096144035,0.10836503,-0.042027485,-0.25235808,-0.35097662,0.1815781,0.22125363,-0.19581869,0.048842825,-0.22494368,-0.014908391,0.3573954,-0.03630168,-0.13561651
社会团体,-0.0035986006,-0.2071507,-0.4524296,0.46191126,0.4966395,0.23050758,0.10963556,-0.39423588,0.41637468,0.047185384,-0.49989033,-0.13020505,0.28360927,-0.48731652,-0.4381559,-0.11486228,0.409083,-0.29693657,-0.27555487,0.2347,-0.3048889,-0.20400542,-0.19083643,-0.66959316,0.38479775,0.3039124,-0.3612895,0.2946582,0.48339403,0.3765232,0.20640478,-0.13637328,0.35586986,-0.75223583,-0.43549788,-0.23087823,0.14993134,0.28612286,0.33586636,-0.3276993,0.093418926,0.06910158,-0.052338496,0.44597733,0.09460008,0.5621859,0.02947481,0.037341617,0.28525987,-0.17811118,-0.41520444,0.10964539,0.01563938,-0.1821073,0.095871106,-0.19350713,-0.07315201,0.4049207,-0.27967772,-0.22284001,-0.28684,0.21651182,0.35403955,-0.18310004,0.5741725,-0.13274783,-0.39908946,0.2981491,0.2327322,-0.054088917
休闲餐饮场所,-0.43560702,-0.06466431,-0.09104149,0.31239432,-0.32523745,0.11617914,0.19591863,0.53686285,0.027476817,-0.31080106,-0.29453868,-0.19906989,0.24580112,-0.19201508,0.06190916,-0.27995747,0.046608504,-0.18154383,-0.18836662,0.20476459,-0.24113353,-0.22101544,-0.11779915,0.18033862,0.0020638825,0.44002455,-0.35670772,0.26055592,0.14660835,0.19870153,0.25699073,-0.14992167,0.11404957,0.048605643,-0.0610561,-0.0973359,-0.19267547,0.20235938,0.15285484,-0.18423687,0.202341,0.19004238,-0.042118635,0.16218454,0.20075968,0.18615231,0.2644852,-0.39319423,0.12140505,-0.07635091,-0.05460629,0.20861496,0.010775667,-0.21952459,0.1713205,-0.24531959,-0.03466184,0.14407271,0.055001132,-0.15068197,-0.25820494,0.042876363,0.14848636,-0.17227072,0.14544916,-0.16474849,-0.25200677,0.18726583,0.18085453,-0.21652645
咖啡厅,-0.37971348,-0.31968626,-0.20922002,0.43783462,-0.23327598,0.2807294,0.36841527,0.510401,0.19000806,-0.3206128,-0.41789442,-0.34967002,0.48162228,-0.28626052,-0.051804546,-0.37160575,0.24478826,-0.19223952,-0.28790182,0.06914444,-0.3031628,-0.17329617,-0.1938717,-0.06629132,0.08219044,0.39810354,-0.21507782,0.4258368,0.17347029,0.38968736,0.12370993,-0.3091434,0.2664938,-0.14285114,-0.18362778,-0.09460604,-0.16716965,0.38227955,0.18644382,-0.1855302,0.2202233,0.3496882,-0.3354709,0.29687923,0.27977094,0.1678903,0.19839023,-0.26505512,0.20678453,-0.2821392,-0.22354977,0.2483643,0.13154052,-0.34996498,0.4190082,-0.23694274,-0.2107743,0.04005302,-0.07625231,-0.37658137,-0.37996328,0.117383204,0.24510983,-0.30481732,0.35873622,-0.24071647,-0.4117071,0.27430153,0.35972247,-0.3223245
花鸟鱼虫市场,-0.55603456,-0.013205752,-0.41774744,0.21038401,0.13330057,0.20567022,0.059066188,-0.1566732,0.15189931,-0.33073714,-0.34570462,-0.40545064,0.15987466,-0.23264797,-0.24058276,-0.42465764,-0.054951802,-0.43458,-0.24833953,0.34942776,-0.06726219,-0.30664402,-0.15485337,0.15716799,0.25149754,0.35639715,-0.17501262,0.31674856,0.3136334,0.37697327,0.37528676,0.33839762,0.2921823,-0.24105623,-0.10214551,-0.18768555,-0.16856164,0.31128818,0.32849127,-0.02613958,0.18105388,0.039673787,-0.195694,0.2954351,0.43089187,0.109486654,0.068026826,-0.08099276,0.37529847,-0.41265106,-0.24853507,0.39807826,0.17517415,-0.44835436,0.29909623,-0.30224317,0.0061435876,0.033922292,-0.17057005,-0.25872427,-0.20405993,0.021606915,0.3169096,-0.14548498,0.117558435,-0.08574248,-0.17358938,0.13224852,0.17547101,-0.24984753
电讯营业厅,-0.39475062,-0.18557374,-0.17097262,0.30053875,0.024036303,0.10338639,0.2788608,-0.1287199,0.025181033,-0.3263979,-0.3029187,-0.06863638,0.07916658,0.13838443,-0.24371028,-0.27196,0.14106788,-0.19320148,-0.26414797,0.18136644,-0.09103818,-0.25798124,0.1346867,-0.17297763,0.26601717,0.23204541,-0.19885471,0.2965803,0.14141017,0.16304865,0.08279947,0.27618432,0.12603769,-0.17112483,-0.279984,-0.1696288,-0.16342431,0.14586899,0.33150935,-0.22925727,0.14943054,0.08554238,-0.021262998,0.1863019,0.4374207,0.053749993,0.2822453,-0.37767136,0.16599378,-0.15529035,-0.19051619,0.38008612,0.08472888,-0.38956493,0.21803613,-0.07591381,-0.050914366,0.31984147,-0.22606477,-0.06949435,-0.27725863,-0.018724851,0.22129945,0.025315724,0.09417787,-0.37677827,-0.11985983,0.20970398,0.2607525,-0.3090119
售票处,0.058613792,-0.49179566,-0.26436272,0.20814735,0.04955007,0.0879284,0.19213995,0.32818055,0.42954075,0.103136614,-0.3483449,-0.26634175,0.43638268,-0.20516542,0.03214145,-0.33909196,0.16335848,-0.38827693,-0.3001889,-0.05587507,-0.19963327,-0.21694872,-0.37412226,0.19661915,0.21896106,0.19720295,0.020531014,0.23316497,0.12255841,0.39915806,0.06769623,0.37211013,0.008865536,-0.054257285,-0.20301306,-0.17477201,-0.2615338,0.3956902,0.03168291,-0.34191144,0.38908148,0.22078606,0.21135125,0.33033904,0.20366912,0.20357999,0.35508138,-0.26137018,0.05096637,0.382964,-0.20883021,0.15078852,0.34718543,-0.33905762,0.20577002,0.19176397,0.088909104,0.10398086,-0.03351137,-0.2836926,-0.31091997,0.08497879,0.52869165,0.03484856,0.036161337,-0.09540934,-0.21247853,0.3112629,0.102437735,0.046653606
体育休闲服务场所,-0.2867707,-0.33205432,-0.36019552,0.18524548,-0.08484891,0.2996282,0.26849586,0.18132758,0.33308187,-0.19843099,-0.30281287,-0.0953179,0.38030517,-0.41751742,-0.23736115,-0.3110915,0.2519415,-0.24931876,-0.33228475,-0.032575384,-0.32140267,-0.12240309,-0.110601,-0.20205668,0.19840747,0.4199344,-0.044703327,0.2214282,0.22234237,0.37870312,0.1282311,-0.054615233,0.20274219,-0.23566051,-0.26818755,-0.10133086,-0.2598977,0.2645385,0.09468657,-0.02638596,0.34229875,0.24312988,-0.31209433,0.45477736,0.2970397,0.29683417,0.3742192,-0.3414024,0.40398297,-0.31121296,-0.45890164,0.31929725,0.23413095,-0.25893617,0.42557532,-0.16017503,-0.17734179,0.21157539,-0.28811902,-0.31036514,-0.29239038,0.35782522,0.23562837,-0.29323664,0.332573,-0.3470171,-0.220097,0.18272194,0.06326912,-0.29759347
外国餐厅,-0.37492418,-0.23778781,-0.3399883,0.27364463,-0.3605305,0.26074108,0.2936082,0.649009,0.15554002,-0.3525437,-0.3741544,-0.30655563,0.44582793,-0.29309732,-0.026129708,-0.4541132,0.27506185,-0.3526351,-0.35766762,0.081763834,-0.43601924,-0.2688466,-0.1973717,-0.11605201,0.0560588,0.54492426,-0.4316346,0.39647394,0.25191033,0.47758505,0.21881106,-0.32304412,0.20729996,0.0002786033,-0.29069588,-0.06631215,-0.29056555,0.41257116,0.21383886,-0.38548326,0.21473719,0.23145005,-0.17251454,0.201617,0.38346544,0.117762655,0.33315334,-0.46181682,0.2340373,-0.22646698,-0.23757574,0.41732994,0.2900206,-0.43043983,0.3259672,-0.33071864,-0.10386038,0.15340747,-0.13258834,-0.30262142,-0.3329174,0.072413564,0.23977032,-0.34904626,0.3040486,-0.38285735,-0.4379841,0.18543337,0.44511664,-0.22536862
文化用品店,-0.34058303,0.039310038,-0.21035999,0.20009609,0.0033709556,0.13696262,-0.031769913,-0.29679888,0.17520255,-0.24667898,-0.39356613,-0.08574454,0.022739852,-0.07691771,-0.094260514,-0.4192599,0.23044954,-0.41352892,-0.13417126,0.30071303,-0.29564184,-0.41544437,-0.10578589,-0.10618384,0.01722762,0.28515846,-0.44946432,0.19985653,0.12891443,0.26846564,0.28978902,0.32237184,0.40258396,-0.36848024,-0.30950952,-0.2902518,-0.37148294,0.12398001,0.10676573,-0.37374094,0.35214388,-0.11077884,0.06654774,0.25835222,0.29015982,-0.05480618,-0.18605994,-0.24767174,0.31880862,-0.4766212,0.018648125,0.21214336,-0.06991259,-0.14739619,0.39591175,-0.32010022,0.1056738,0.17735173,-0.3300518,-0.35633326,-0.10679094,0.21603727,0.33909714,-0.1798856,0.03752275,-0.05323521,-0.19891909,0.33030033,0.25378978,-0.4453203
茶艺馆,-0.2965364,-0.16572082,-0.23800491,0.30289286,0.14002706,0.19226778,0.2745067,0.17698012,0.22171345,-0.12579958,-0.3892135,-0.00527725,0.25766522,-0.27757263,-0.099473305,-0.26615334,0.14247005,-0.3259564,0.00013460778,0.22886951,-0.18161571,-0.19162887,-0.14451683,-0.0451232,0.18333024,0.2388548,-0.25738722,0.25807166,0.3177396,0.24999051,0.18442075,0.12194186,0.011955617,-0.043271903,-0.30192083,-0.33248016,-0.18325275,0.30376786,0.29605973,-0.12424513,0.26523107,0.005653126,-0.15156601,0.22149348,0.23755369,0.03612543,0.038461592,-0.35190302,0.24606007,-0.11788238,-0.10360618,0.40954274,0.03439324,-0.1824347,0.25659025,-0.20202363,-0.12103975,0.14255464,-0.068662316,-0.33191693,-0.14969543,0.29930773,0.23295465,-0.35604137,0.08556389,-0.2785038,-0.20410463,0.19339237,0.14157116,-0.14662421
丧葬设施,-0.5407429,0.24110252,-0.13590118,0.13547371,0.17557165,0.12523143,-0.19846292,-0.5946806,0.13587473,-0.387601,-0.05011571,-0.13894519,0.21615589,-0.1252014,-0.3971321,-0.25278878,-0.24872315,-0.44531435,-0.0901038,0.65354013,-0.08622186,-0.5325339,-0.14433879,0.12615043,0.4113158,0.084298514,-0.070541926,0.16578278,0.2881462,0.09462187,0.2367698,0.340196,0.17547226,-0.18286231,0.0108013,-0.4185651,-0.45610327,0.22215202,0.5251672,-0.15621032,0.04310023,-0.23488776,-0.23479576,0.3132237,0.25918633,0.05429457,0.22975808,-0.1083242,0.21336725,-0.21931487,-0.12224193,0.28860128,0.13410076,-0.22483996,0.24772786,-0.24138594,-0.026655737,0.2769607,-0.06838913,-0.22171581,-0.19924144,0.38579702,0.19986936,-0.16688612,0.20766151,-0.1135506,0.06277375,0.15736672,0.04288228,0.09185605
汽车租赁,0.0044997744,-0.35003167,-0.30330667,0.21343464,-0.0688798,0.21325932,0.12043229,-0.14985248,0.17518602,-0.037086323,-0.23324074,-0.36596987,0.052601717,-0.28409818,-0.33373564,-0.3343032,0.13644636,-0.19892895,-0.33711812,-0.0021426268,-0.21870324,-0.015135188,-0.16848218,0.076853484,0.24363412,0.042901073,0.017567929,0.19458216,0.12362003,0.30983412,0.15634456,0.3757814,0.29588303,0.1483611,-0.034348782,-0.2294758,-0.2767671,0.09159064,-0.06192892,0.010532543,0.113937214,0.23258853,-0.31134847,0.22529021,0.20605542,0.1492106,0.24098292,-0.10663049,0.12623817,0.08428153,-0.1411334,0.14962369,0.272286,-0.009142846,0.17042215,-0.25002864,-0.39551193,0.2878981,-0.083993174,-0.07170446,-0.31078506,0.3053189,0.31429863,-0.25049007,-0.17047065,-0.097691864,-0.1600337,0.14630161,0.2187173,-0.04184813
诊所,-0.3493926,-0.22360505,-0.37983096,0.21136007,0.4063624,0.00094476715,0.2374548,-0.279176,0.3564047,0.10883795,-0.27437353,-0.22367501,-0.04694258,-0.32537276,-0.1999792,-0.32766384,0.23491359,-0.255359,-0.23749119,-0.010793441,-0.3234857,-0.28781536,-0.021343557,-0.51985025,0.1448988,0.22568655,-0.15175425,0.13120519,0.11128421,0.30537683,0.13723487,-0.21123272,0.43804055,-0.22185725,-0.23197317,-0.17413835,-0.082377344,0.42268226,0.31558394,-0.019012906,0.17195423,-0.027322467,-0.33611554,0.39910096,0.44330046,0.1372567,0.36080372,-0.12650618,0.1604396,-0.24745592,-0.23382866,0.16513363,-0.06572239,-0.40482074,0.21855786,-0.24741182,-0.14685062,0.30911535,-0.2525707,-0.31786096,-0.23995394,0.089856625,0.1665427,-0.07220154,0.32694542,-0.08490608,-0.2605201,0.18861154,0.21941856,-0.10153862
综合医院,-0.5011524,-0.0014035203,-0.25947148,0.19677633,0.6628604,0.06331105,0.56943715,-0.48115388,0.27865338,0.24387169,-0.3847391,-0.27219123,-0.031245444,-0.4308117,-0.282782,-0.3746171,0.23761427,-0.3759214,-0.47008878,0.08538166,-0.37255228,-0.48419815,-0.050901197,-0.48693848,0.3633675,0.08508354,0.07945375,0.325577,0.3627,0.28105587,0.20928174,-0.474855,0.532552,-0.058494546,0.26312265,-0.22390223,-0.017673653,0.2102226,0.28408116,0.1396202,0.33783656,0.035297293,-0.32521206,0.1667071,0.4509804,0.2565768,0.47649625,0.17383221,0.3607989,-0.18925379,-0.51084834,0.4358493,-0.0042353645,-0.37984267,0.45384407,-0.43173558,-0.09579907,0.25630686,-0.50838107,-0.37121555,-0.25828555,-0.13336004,0.24714945,-0.019052213,0.27597642,-0.18821676,-0.34262812,0.44623917,0.4702193,0.03986458
旅行社,-0.38174915,-0.198836,-0.33270204,0.2982248,-0.29450747,0.093747534,0.07758212,0.1482127,0.33747575,-0.043493528,-0.28559756,-0.26199305,0.33802676,-0.29759002,-0.1218313,-0.41668183,0.36929923,-0.3035468,-0.2378363,-0.13477445,0.05055821,-0.29191697,-0.13608412,0.16881259,0.23660225,0.12779674,-0.19878137,0.13947925,0.056396134,0.21430399,0.10446492,0.31063676,0.2694265,-0.27967942,-0.36732,-0.19081922,0.028076883,0.37727773,0.35661113,-0.32850277,0.36420232,0.3175376,-0.031392895,0.3660689,0.24073672,0.31013155,0.17002618,-0.3565551,0.0645411,0.097694464,-0.15762553,0.046894364,0.10726504,-0.43586576,0.07766716,-0.0074345656,-0.13964078,0.45286828,-0.18817127,-0.23054084,-0.44646043,0.17960389,0.45366627,-0.14446089,0.13128258,-0.20139188,-0.16233896,0.20851858,0.39411545,-0.097593606
汽车配件销售,0.238428,-0.29581004,-0.37803978,0.15659742,0.012207568,0.24695484,0.078658,-0.76194704,-0.07025942,-0.0437068,-0.25763628,-0.28042752,0.1969524,-0.16195108,-0.45664668,-0.3106399,0.27585965,-0.08956915,-0.31126198,-0.014594886,-0.47030458,0.3279317,-0.21704584,-0.07671304,0.35876182,0.26312652,-0.16456994,-0.08618194,0.42533326,0.27772722,0.41969317,0.743482,0.32335687,0.4793026,-0.18236706,-0.3670572,-0.4775672,0.2788758,0.14914899,0.24352553,0.39032114,0.13486734,-0.36177635,0.1315985,0.21377924,0.12410914,0.21854281,-0.22220677,0.07076939,-0.47291815,-0.110500164,0.2558766,0.37149295,0.0798924,0.14507197,-0.12897131,-0.40612462,0.37344724,-0.05805415,-0.1587785,-0.020637466,0.2949864,0.22319308,-0.16556364,-0.25312924,-0.43564916,-0.15299028,0.3044917,-0.064319424,-0.39277405
二手车交易,0.41122618,-0.24843955,-0.37197354,0.038837112,0.10994695,0.3228606,-0.030379232,-0.1768677,0.017078187,0.059447333,-0.2268724,-0.36480242,0.080155015,-0.2082821,-0.21846351,-0.22028296,0.28532597,-0.18798545,-0.24920553,-0.20717832,0.015068126,0.019986559,-0.1407721,0.079105355,0.29312873,0.16355091,-0.09897257,-0.023672054,0.16534406,0.13883033,0.25770372,0.60357344,0.13557304,0.2540603,-0.17565688,-0.3173703,-0.1155941,0.31370214,0.01591923,0.21475469,0.2604793,0.31660804,-0.21783172,0.10497807,0.0416855,-0.04358638,0.19671452,-0.04113891,0.09340368,-0.15583023,-0.13353902,0.33851865,0.092471376,0.07897318,0.31249118,-0.09014133,-0.42444444,0.099034116,-0.2029491,-0.16833213,-0.12615822,0.23708381,0.19433048,-0.49330065,-0.12130959,-0.21555522,-0.20392737,0.17381775,-0.36004123,-0.116170734
度假疗养场所,-0.26926482,-0.12428852,-0.28785795,0.16190962,0.57529545,0.03714907,0.17712072,-0.42772156,0.18444903,-0.033867553,-0.3307941,-0.27531573,0.14561772,-0.13814874,-0.24127269,-0.36810106,0.062113397,-0.21048996,-0.08829735,0.34905064,-0.14220573,-0.16371994,-0.076742545,-0.34660774,0.36352783,0.21551785,0.16683573,0.16935006,0.29766098,0.1402522,0.26413313,0.10174684,0.19750142,-0.27464682,-0.211918,-0.19603191,-0.15038165,0.3375738,0.36351952,-0.12856112,0.18560761,-0.034238756,-0.32884395,0.31629264,0.08664233,0.13846798,0.17613457,0.09121001,0.14537945,-0.051093493,-0.36006182,0.091838226,0.06821725,0.007969005,0.38626456,-0.15159014,-0.17525913,0.16066661,-0.18009588,-0.3051353,-0.24355155,0.0653762,0.12702027,-0.10011506,0.17274451,-0.16866659,-0.07202418,0.2698535,-0.040226437,-0.15925026
洗车场,0.11408758,-0.06877972,-0.05887031,0.052382465,-0.28152564,0.19237962,-0.014694945,-0.12855643,-0.13306633,-0.20349011,-0.2736439,-0.086029224,0.22574557,-0.0057984134,-0.055055458,-0.21537328,0.011650313,-0.039730955,-0.09810703,0.13224235,-0.092469655,-0.096453205,-0.13977273,0.113282114,0.16494015,0.1911197,-0.13273071,0.006876625,0.33851665,0.17993994,0.12280077,0.24190651,0.1269564,0.20124054,-0.14306363,-0.079698265,-0.24608964,0.15548354,-0.10582213,-0.1219582,0.1337792,0.15531795,0.13294102,-0.026232805,0.18995082,-0.031532153,0.10009279,-0.09875677,0.07320812,-0.018720746,-0.13234124,0.1938462,0.14505455,-0.23301904,0.053021602,0.012804888,-0.22317125,0.043494523,0.17894319,-0.026859883,-0.08123731,0.009643383,0.15961868,-0.13678846,0.009492859,-0.15055573,-0.21489792,0.10534268,-0.03724651,-0.21972618
个人用品/化妆品店,-0.34993672,0.31318602,-0.24216716,0.16955149,-0.5553669,0.45339158,0.12105314,0.6602839,0.13413054,-0.5546972,-0.2048037,-0.031034417,0.29577434,0.015804201,0.21662909,-0.4301122,0.09438376,-0.31982854,-0.28823853,0.2259777,-0.27911776,-0.5334151,-0.11789727,0.019207716,0.18821481,0.33277416,-0.48267668,0.05300287,0.42307803,0.30963963,0.2049442,0.17402837,0.3802675,0.11657053,-0.39676857,-0.3393041,-0.098420545,0.14104342,0.08512069,-0.2935947,0.2007103,0.16444883,0.16350307,0.28196147,0.25696144,-0.1546453,0.172975,-0.2647293,0.2023736,-0.42474198,-0.20132634,0.19203526,0.17215598,-0.522138,0.30274928,-0.5549489,-0.020639535,0.065471455,-0.1083847,-0.252941,-0.100704566,-0.08106892,0.33732748,-0.16589549,0.16481435,-0.3074046,-0.36959192,0.24251607,0.4363259,-0.41419822
公园广场,0.16987735,-0.42575622,-0.18075107,0.21773744,0.42778933,0.22122723,0.22555888,0.33975148,0.31463313,0.045793884,-0.18832242,-0.24829264,0.30946445,-0.31865257,-0.05673419,-0.42028132,-0.004525343,-0.3226636,-0.42280304,-0.0073068403,-0.23765534,-0.2814378,-0.49890888,-0.28264278,0.033962894,0.26259696,0.28403872,0.26454455,0.20816857,0.31942403,0.24618073,0.030657375,0.23122533,-0.2947407,-0.001012132,-0.08960192,-0.28481376,0.38378626,-0.014045145,-0.23686023,0.26020187,0.3158051,0.115291424,0.20712906,0.14829105,0.15093225,0.46242076,0.10699788,0.3934573,0.009775048,-0.3957465,0.21235988,0.52345747,-0.09583314,0.22311887,-0.07524446,0.02951508,-0.1109442,0.043695915,-0.24888659,-0.038267005,-0.2581985,0.47074538,-0.13123658,0.33719385,-0.36059904,-0.24540286,0.4869097,-0.078533724,-0.17894946
专科医院,-0.47589183,-0.10566759,-0.38133842,0.15065458,0.3685766,0.09398327,0.32071352,-0.2996756,0.2737456,0.03361588,-0.20032011,-0.1533977,0.035610255,-0.38697267,-0.27936298,-0.2707886,0.06889092,-0.32242382,-0.22586732,-0.1183976,-0.41256708,-0.49579185,0.06783106,-0.5599572,0.40634874,0.2406784,0.062370695,0.4343528,0.35250556,0.33942264,0.1050008,-0.43391374,0.550344,0.0300857,-0.030986652,-0.2264894,0.032366853,0.27108383,0.42275244,0.059421644,0.24064395,-0.029661857,-0.45579877,0.19865079,0.37499404,0.17443955,0.3767236,-0.06782366,0.25434604,-0.27987698,-0.3850186,0.33712584,-0.20291896,-0.43908876,0.28538767,-0.26823762,-0.286526,0.21364886,-0.2444762,-0.44805408,-0.32507187,-0.044812102,0.2082375,-0.38213646,0.3830142,-0.010944938,-0.15478617,0.36462325,0.47663376,-0.22509807
财务公司,0.42244053,-0.16187374,-0.22937496,0.0008174926,-0.06083651,-0.016406221,-0.21420059,-0.021278828,0.14970721,0.04600888,0.047359757,-0.04485817,0.016979633,-0.100887656,-0.0780206,0.019213699,-0.007852979,-0.1093193,-0.15366612,-0.25476477,0.07716849,-0.10326035,0.07850024,0.028877523,-0.018668056,-0.053382047,-0.006006643,0.0050798208,0.090999596,0.1084156,-0.046452582,0.06829489,0.020187765,-0.12413515,-0.09592797,-0.053119484,0.0181562,-0.07093973,0.108302675,-0.16151406,-0.020592999,0.03129065,-0.09580366,0.13455474,0.046398558,-0.035082716,-0.06395535,-0.14893605,-0.087552235,0.12817849,-0.15697388,-0.329771,-0.030537624,-0.048444107,0.04553128,0.021828782,0.013683569,0.06452602,0.08121983,-0.041247975,-0.11266305,0.34610802,-0.070296064,-0.056805223,0.08054741,-0.061423436,-0.090377375,0.064129844,-0.093025275,-0.050134428
动物医疗场所,-0.229321,-0.036152996,-0.23067659,0.2409761,0.16910258,0.3601703,-0.036158442,-0.37618378,0.23186684,-0.2247368,-0.3608218,-0.097920686,0.09796548,0.038560383,-0.2452831,-0.23533395,-0.04221177,-0.37464595,-0.070653915,0.3758385,-0.16689306,-0.29313257,0.16792211,0.3044469,0.1559775,0.16932817,-0.12450829,0.25727427,0.32494006,0.06469811,0.24556878,0.050167527,0.11077142,-0.26644662,-0.31553414,-0.44811264,0.1265692,0.31477767,0.29182154,0.09241475,0.2601217,-0.0685247,-0.11783731,0.153559,0.23501787,0.12519924,-0.19552323,-0.27443546,0.33037794,-0.19930176,0.0022070091,0.13157114,-0.11709109,-0.26115865,0.1377545,-0.0807537,-0.17453673,0.40427858,-0.12662728,-0.10512897,-0.04397526,0.19673353,0.11219914,-0.15418072,0.25011098,-0.25057593,-0.09924621,-0.08684486,0.0754318,-0.07735009
工商税务机构,0.03235246,0.0724045,-0.30889505,0.16710186,0.20655523,0.12399943,-0.5402795,0.016874254,0.5124711,0.30809778,-0.13227561,0.36838615,0.46321705,-0.13184844,-0.29313362,0.07290515,-0.21008399,-0.3909676,-0.39834285,0.19763416,-0.14778711,-0.46876633,-0.4284327,-0.38488123,0.36219025,0.23802035,0.007788606,0.33451688,0.12650332,0.30155456,0.3074088,0.39798063,0.06579329,-0.6193639,-0.29351878,-0.4084859,-0.1880654,0.41705662,-0.3874588,-0.2676803,-0.032124728,-0.26430336,-0.36882663,0.23794189,-0.19064818,0.13602774,-0.06285679,-0.033026565,0.11713582,-0.21903516,-0.27466208,0.30182976,0.38615292,0.0019353987,0.41704252,-0.31198415,0.13675147,0.20181225,-0.379319,-0.009198764,-0.1286538,0.382104,0.09619668,-0.39866677,0.42205396,0.17684752,-0.30611545,0.096601754,0.21209213,0.39994037
特色商业街,-0.3977433,-0.112589575,-0.102874756,0.12564868,-0.10309401,0.08754304,0.025957212,0.18568543,-0.0069013126,-0.22543705,-0.18773149,-0.17586164,0.22964391,0.067515455,-0.13565816,-0.2193302,0.082852215,-0.15007116,-0.13831766,0.23012607,-0.1480538,-0.075696126,-0.020003777,0.07482682,0.10436426,0.27632165,-0.25330767,0.108166695,0.28718007,0.21913615,0.2967432,0.042186584,0.09838052,0.03983776,-0.18349572,-0.14787063,-0.21536303,0.2413622,0.10739066,-0.17230862,0.20022553,0.07163149,0.016980805,0.0937277,0.24207735,0.07617384,0.023386298,-0.23082215,0.04134474,0.00024410337,-0.1641126,0.16390795,0.022038452,-0.17074507,0.122975245,-0.21003465,-0.038253397,0.057953104,-0.053181157,-0.26481757,-0.07976943,0.04063659,0.1026766,-0.1696048,0.09635657,-0.29644772,-0.20134437,0.16462813,0.2063134,-0.026131954
婴儿服务场所,-0.45792705,-0.27218407,-0.081901655,0.22430211,-0.101949066,0.109942004,0.23751244,-0.025101777,0.028874066,-0.3728748,-0.121396795,0.1654143,0.071394116,0.0645728,-0.071639076,-0.19596648,0.29118013,-0.32563072,-0.07619895,0.29687488,-0.10612546,-0.3845398,0.08821021,-0.0875105,0.18357384,0.11821056,-0.13255718,0.14315404,0.14373416,0.019261839,0.2337423,-0.14012453,0.15608881,0.01073958,-0.05870529,-0.2495158,-0.21136668,0.2777223,0.09180585,-0.18368311,0.37727207,0.081840694,0.15536207,0.05959918,0.2434572,0.1310618,-0.029852636,-0.15976754,0.16858529,0.016221076,-0.25065643,0.18202102,-0.031581588,-0.07268751,0.08350134,0.09108635,-0.009838007,0.13290384,0.051357925,-0.122097336,-0.15456675,0.20729353,0.13040797,-0.4082541,0.23339912,-0.2821743,-0.13860011,-0.15959412,0.20125613,-0.09305604
事务所,0.21601698,-0.113138214,-0.3795411,0.2671814,-0.0051720142,0.29592597,0.12080982,-0.21758725,0.4961856,0.080617465,-0.35174108,-0.092571124,0.25524232,-0.27985758,-0.16502991,-0.23829669,0.46115923,-0.33278424,-0.021005506,-0.35503417,-0.08368788,-0.1488522,0.03095237,-0.26346347,0.22666006,0.036738973,-0.35683817,0.10656074,0.12770973,0.093606874,0.0014890498,0.15611827,0.17271952,-0.6892923,-0.34592772,-0.19222806,0.093373105,0.31777942,0.18877621,-0.39510027,0.17269196,0.32494274,-0.44376197,0.26459527,-0.10240075,0.46428782,-0.11376275,-0.3875559,0.23667926,0.26672813,-0.29044273,0.09684174,-0.17035788,-0.34602088,0.10693845,-0.2708978,-0.26561254,0.5122857,-0.36370987,-0.055225182,-0.22680648,0.43399224,0.374165,-0.21170995,0.38969085,0.04149644,-0.3001945,0.13922247,0.34884822,0.07509576
摩托车维修,-0.017767798,0.15150261,-0.30022216,0.27731657,-0.041594356,0.20681903,0.12775138,-0.5398674,0.075399205,-0.29556453,-0.16872956,-0.23878092,-0.0025645234,0.18113011,-0.21282655,-0.063388854,-0.01806549,-0.28508708,-0.012363952,0.25548977,-0.2442577,-0.12216886,0.051373035,0.13371207,0.26960313,0.03193423,0.012318622,0.18058774,0.18774626,0.0773755,0.32125857,0.5064305,0.26930177,0.27075928,-0.25604004,-0.29537165,-0.34711593,0.05567831,0.32185602,-0.09906092,0.23372999,-0.026876438,-0.25276607,0.27451062,0.09189838,0.051552624,0.04229185,-0.22660431,0.028152168,-0.25111213,-0.17169634,0.051327482,0.07939714,-0.113178715,0.17998399,-0.079095945,-0.10070735,0.23412913,0.041939255,-0.06119151,-0.21287395,0.11122535,0.24986187,-0.20968132,-0.11660485,-0.14985363,-0.030033961,0.17112151,0.04791395,-0.13787861
体育用品店,-0.38572383,0.3484877,-0.20173553,0.083528936,-0.5775141,0.50092685,0.13387062,0.6263742,0.03935278,-0.33218455,-0.36293277,0.13740233,0.411143,-0.013853568,0.105706885,-0.37072724,0.24461523,-0.27889195,-0.3678978,0.26261047,-0.22272693,-0.34233186,-0.28901738,0.016005203,0.12480238,0.4968878,-0.26787367,-0.042856123,0.32449943,0.3196783,0.122538626,-0.017003369,0.2209901,0.15112093,-0.48301053,-0.39398712,-0.11184113,0.23737295,-0.034165867,-0.27377862,0.1268473,0.1992198,0.27579117,0.2586572,0.32019404,0.12369451,0.40653747,-0.11475206,0.10838677,-0.40874106,-0.2931832,0.13480195,0.17950016,-0.46555096,0.16983011,-0.4913316,0.1334769,0.06760535,-0.16450933,-0.21414615,-0.29632893,0.041594584,0.30090648,-0.11859399,0.09856108,-0.27295738,-0.23790139,0.2448865,0.38564688,-0.41565382
保险公司,0.23631164,-0.26498112,-0.23037699,0.28001812,-0.37704128,0.0134637095,0.022695575,0.02696243,0.15457836,-0.07130775,-0.26790616,-0.18711935,0.23820582,-0.35819057,-0.247239,-0.19859986,0.28025267,-0.16513783,0.067554936,-0.3817061,-0.119376495,-0.027858067,-0.06639269,-0.093671106,0.07545924,0.02302371,-0.28659627,0.316696,0.21006544,0.09608718,-0.09349088,0.36092335,0.014945692,-0.28636977,-0.3959828,0.027410123,-0.030671611,0.14114957,-0.10722712,-0.19242558,0.13636741,0.35741538,-0.36858577,0.10662847,0.1019213,0.31688914,0.120269075,-0.35508412,0.06261441,0.12374691,-0.22628975,0.053039413,-0.32478118,-0.455652,0.25710988,-0.3185506,-0.27982804,0.2137874,-0.11986578,0.0035176016,-0.12986094,0.44262046,0.15916635,-0.3961085,0.43525845,0.0064527234,-0.21566933,0.11582632,0.25709894,0.23423329
会展中心,-0.013761723,-0.32578474,-0.22097996,0.06602022,-0.16596308,0.19511971,0.38225263,0.13531685,0.073167704,0.3827337,-0.27088207,-0.3622682,0.3605808,-0.45316496,-0.2361222,-0.073538154,0.092058614,0.094771996,-0.15779352,0.26574823,-0.14397061,-0.11762646,-0.07831948,0.24213919,-0.19979641,0.36436945,-0.21394417,0.39597797,0.2799381,0.28305894,0.24432924,-0.5427118,-0.021821484,0.10043336,-0.209746,-0.18233776,0.09864032,0.16477248,-0.1960882,-0.32734078,0.32698578,0.5528969,0.034159467,0.16869634,-0.10353551,0.01701939,0.22157472,-0.105725236,-0.22522542,0.3804825,-0.03821547,0.10273191,0.5246045,-0.029419567,0.2355443,-0.17096297,-0.33147883,0.13169657,0.00044043385,-0.19690672,-0.3483473,-0.08806177,0.29527584,-0.311868,0.5002563,-0.33228615,-0.38661185,0.20796612,0.39969438,0.5726272
风景名胜,0.14007342,-0.23492056,-0.24774736,0.45655638,0.4042405,0.18943068,0.2862154,0.3897208,0.41659603,0.19673342,-0.44923022,-0.14572307,0.39858562,-0.32251102,0.11345738,-0.25748727,0.32449853,-0.38499376,-0.3888756,0.21670465,-0.41878527,-0.36749685,-0.5732471,-0.25411907,0.195201,0.010514112,0.04610359,0.40937638,0.26544547,0.3000204,0.19771908,-0.28129673,0.22195798,-0.40870366,-0.06974657,-0.1890156,-0.19637026,0.30555046,0.08313348,-0.489858,0.26081368,0.35939175,0.293155,0.20710298,0.2006416,-0.14233242,0.43530887,0.018731598,0.27164423,-0.09439363,-0.20559517,0.18562755,0.44616348,-0.2882537,0.29620075,-0.014297269,0.0777253,-0.1616221,-0.12936032,-0.24613607,-0.17517659,-0.22328565,0.32801723,-0.13960502,0.2691764,-0.3366398,-0.4163022,0.44733375,0.091314785,-0.105929
加油站,0.28441602,-0.28651315,-0.26656038,0.25445658,0.03334561,0.20152134,0.15556131,-0.5589673,0.08756979,-0.0943567,-0.3860383,-0.40080848,0.21991655,-0.034595493,-0.06856014,-0.16384032,0.08868234,-0.08917751,-0.09028888,-0.061587244,-0.1863772,0.21717969,-0.4022771,-0.006127909,0.06563611,0.12537241,-0.08601408,0.032486953,0.23086613,0.35578793,0.36360207,0.2896884,0.09838188,0.21221082,-0.05323839,-0.1705792,-0.30510205,0.079241976,-0.06671995,-0.12066307,0.12735118,0.22939661,-0.22587259,0.2588043,-0.012678368,0.039450325,0.16740549,-0.0033660978,0.049511656,-0.15606299,-0.35277554,0.20164669,0.47959834,0.024004348,0.1928437,-0.073721536,-0.39359778,0.15380265,-0.025800057,-0.10616043,-0.087576695,-0.05004775,0.09675529,-0.15834017,-0.19184153,-0.013764624,-0.09091649,0.2689735,0.11005767,-0.17337398
文化宫,-0.03842979,-0.15856221,-0.22920148,0.405339,0.29785064,0.24573483,0.034835543,-0.11753362,0.31790432,-0.14596802,-0.1626807,-0.09515958,0.18500271,-0.058773264,-0.21367766,-0.29923898,0.40481967,-0.29551098,-0.17171934,0.44500458,-0.13197674,0.034772716,0.0006561503,-0.39199844,0.23560482,0.14067611,-0.1013431,0.18496518,0.294308,0.18695989,0.283292,-0.2874315,0.28832257,-0.52400714,-0.124055654,-0.20380554,0.060752302,0.18440276,0.18844263,-0.018489234,0.057814762,0.17484535,-0.016650774,0.30184034,0.19627488,0.5424328,-0.24240336,0.17270355,-0.055486567,-0.011850767,-0.18838316,-0.12598921,0.26877308,0.008399429,0.15449569,-0.014572138,0.26011217,0.14059545,-0.051773414,-0.2069925,0.017396476,0.0033057556,0.122812614,-0.11727871,0.39032602,-0.033195265,-0.08243503,-0.03798719,0.16231214,-0.06395668
商场,-0.3678605,0.0410271,-0.20310667,0.13329299,-0.4519344,0.31939542,0.15978046,0.63757324,0.15419456,-0.39139044,-0.21755588,-0.018225022,0.20779958,-0.12068838,-0.12334233,-0.2997918,0.33800313,-0.28358307,-0.3236366,0.13528238,-0.3354265,-0.024030935,-0.23339088,0.13536666,0.10977378,0.34850353,-0.18251482,0.17848149,0.26166648,0.27192914,0.074478775,-0.0997704,0.1972993,0.19876474,-0.32769483,-0.20674512,-0.12311291,0.105102144,0.13602993,-0.33161578,0.4092809,0.26460093,0.034103796,0.16907573,0.15856098,0.059094116,0.3892188,-0.30621764,0.17710638,-0.23170216,-0.38105744,0.26592845,-0.0383737,-0.16180876,0.35978207,-0.19953224,0.13829361,0.12038879,-0.17050412,-0.24465019,-0.2056203,0.1223275,0.16507244,-0.232829,0.17459452,-0.43416303,-0.31021053,0.212642,0.2980314,-0.30526388
紧急避难场所,-0.14996344,-0.33145332,-0.32502663,0.30935392,0.09788313,0.30692345,0.29811043,0.038986903,0.21091966,-0.30150586,-0.31793696,-0.16483667,0.16071992,-0.43517888,-0.18395907,-0.415009,0.27724448,-0.2396498,-0.15404356,0.075949155,-0.15827358,-0.10667917,-0.1424843,-0.46418542,0.15937106,0.20849866,0.06433852,0.3046372,0.16545847,0.25364065,-0.052066527,-0.059225876,0.10602607,-0.26059735,-0.19907434,-0.17556539,-0.2384476,0.37188387,0.28919047,-0.030093912,0.35769188,0.121018335,-0.12128995,0.28413177,0.42937994,0.35015422,0.31263888,-0.02818494,0.32782626,-0.33743614,-0.21707809,0.23919071,0.1565975,-0.28003636,0.36884952,-0.2934118,-0.2855385,0.19494775,-0.29736906,-0.17577496,-0.23869273,0.1032296,0.13658962,-0.1769341,0.2890613,-0.17298064,-0.16815546,0.3491622,0.15675974,-0.20932695
交通车辆管理,0.57307804,-0.38519335,-0.14909093,0.16906565,0.3307042,0.33446908,-0.07766564,-0.61349857,0.18236297,-0.36415705,-0.25596875,-0.3690157,0.34101176,-0.23193319,0.23500392,-0.13441566,0.41217145,-0.12252134,-0.080338776,0.3953904,-0.16679884,0.44560567,-0.08651404,-0.36363816,0.3906232,0.26218092,-0.04870326,0.061939374,-0.05708223,0.20110333,0.2815996,0.41822773,0.23326266,-0.33817542,-0.028853875,-0.35831743,0.10309424,0.10875523,-0.34095928,0.16036132,0.1921309,0.29193908,-0.2769683,0.10813234,-0.26940536,-0.09131364,-0.3562882,-0.3044962,0.22312084,-0.068790466,0.13668565,0.19068381,0.20588619,-0.11996354,-0.005439476,-0.42187357,-0.19871558,0.23557459,-0.2483932,-0.23732448,-0.30086547,-0.011638444,0.06140895,-0.2569913,0.28508422,-0.05206327,-0.14753845,0.23047009,0.20746689,-0.074207544
公用电话,0.06728783,-0.07163783,-0.073134154,0.2915963,0.18894957,0.08419688,0.16188599,0.25812927,0.0341559,0.089688495,-0.23450989,0.04237295,0.34534252,-0.14329015,0.00023888797,-0.14889395,0.061084133,-0.43723038,-0.3445161,0.16913153,-0.21278332,-0.44843298,-0.32215226,0.15311715,0.19991016,-0.20235446,-0.053015433,0.0047930023,0.16063927,0.11096862,0.40787932,0.19801661,0.11215553,0.22217469,0.12176871,-0.018866803,-0.11963773,0.27832305,0.045653462,0.0027238205,0.29938102,0.14913532,0.3556078,0.26325673,0.017614467,0.004940165,0.17977992,-0.08234658,0.15743656,0.06496804,-0.32078075,0.053117763,0.44857883,-0.10807206,0.055357717,-0.16275473,0.2589019,-0.27918392,-0.06162574,-0.39942467,-0.17808703,-0.27337915,0.31975293,0.008956133,0.17646791,0.011414353,-0.3570899,0.2696668,0.10514722,0.20271215
特殊买卖场所,-0.42031682,-0.055657268,-0.14998336,0.26012218,-0.023738235,0.3668527,0.12675464,0.102344394,0.063419886,-0.12335108,-0.16481069,0.032784026,0.23773175,-0.19020137,-0.19330294,-0.15980253,0.15213962,-0.2879883,-0.08984298,0.049392145,-0.21131197,-0.03625197,-0.2906427,-0.09341596,0.32918346,-0.006612332,-0.060586553,0.18939167,0.1847465,0.12465054,0.08695699,0.14742188,0.22689381,-0.4144596,-0.29546732,-0.27400452,-0.20198981,0.2734052,0.17564873,-0.08698312,0.23362385,0.22855042,-0.15895495,0.26534066,0.16394344,0.19675255,0.01697553,-0.2665282,0.15698837,-0.19020256,-0.07772556,0.3009575,-0.039317988,-0.10600792,0.17171133,0.0372476,0.090698,0.14112234,-0.13690443,-0.25482062,-0.1794161,0.30710387,0.077706546,-0.31152785,0.16808793,-0.23342332,-0.21310516,0.14192717,0.12988661,-0.12567747
电力营业厅,-0.17164958,0.035499558,-0.121067226,0.11889516,0.12363239,0.03387584,-0.24157244,-0.5869452,0.2343098,-0.18637262,-0.2335706,-0.118991196,0.19796142,-0.11370265,-0.13524255,-0.05160448,0.050091516,-0.11823127,-0.21838033,0.27289063,0.042610344,-0.19872317,-0.12362195,-0.03478594,0.14276311,0.120585695,0.05472275,0.24921854,0.11848898,0.048748218,0.13410059,-0.046955317,0.054323345,-0.19673273,-0.19520336,-0.12251225,-0.071553126,0.1420124,0.087211266,-0.032095306,0.11373958,0.23260897,-0.20170653,0.16102281,0.07165562,0.08763495,0.021938741,-0.13865982,-0.051319376,-0.048516937,0.106870025,-0.001283627,-0.21510977,-0.15458837,0.1255346,0.27374044,-0.097327515,-0.034195594,0.098311245,-0.16006278,-0.1736236,0.24885607,0.16963622,-0.3350142,-0.04062099,-0.04127767,-0.118857116,0.14542706,0.04713203,0.045853715
人才市场,0.3420068,-0.14796108,-0.14637256,0.3208903,-0.19330558,0.2946218,-0.0808376,-0.59694946,0.41612834,-0.20810153,-0.2217396,-0.08154705,0.0231591,-0.12538575,-0.4263668,-0.13594459,0.3480004,-0.18995595,-0.060276322,-0.039588682,-0.09308982,-0.3450532,-0.008024801,0.1553578,0.36073548,0.06911098,-0.1895429,0.1987453,0.23643136,0.17185831,0.38375795,0.32898337,0.34376132,-0.48073375,-0.19014858,-0.2660547,-0.18524708,0.24284765,0.33501884,-0.18761696,0.1339334,0.14542888,0.24887717,0.30605018,-0.0673517,0.5019704,-0.14297211,-0.19169764,0.028780501,-0.110481575,-0.27264678,0.0990745,-0.22401205,-0.2550716,0.31631756,-0.121542424,-0.24008082,0.55972296,-0.28928196,-0.11946839,-0.24728957,0.50903237,0.20665288,-0.034079924,0.1139566,0.30004698,-0.40704215,0.40403736,0.22060168,-0.23490131
风景名胜相关,0.13450395,-0.23516235,-0.35027426,0.18829937,0.1875208,0.27141532,0.088906914,0.5351816,0.33319378,0.2734738,-0.21618554,-0.15872605,0.453646,-0.2656618,0.021655992,-0.3101533,0.21798138,-0.18709004,-0.28611723,0.0855567,-0.31022093,-0.2594152,-0.45097035,-0.2136115,0.10837966,0.10141481,0.08010097,0.45138192,0.25178307,0.29692772,0.38356844,-0.18273538,0.3042683,-0.3579955,0.018038187,-0.17721754,-0.0083325645,0.38006264,0.16646303,-0.42314768,0.22554365,0.23441786,-0.075024724,0.17386158,0.36708307,-0.0017917603,0.39758962,-0.11170914,0.10217868,-0.18826827,-0.15158938,0.44891,0.20716348,-0.33905676,0.24361989,0.042844884,0.15812202,-0.062141597,-0.11193275,-0.3064022,-0.39929664,-0.19912708,0.3259652,-0.20069978,0.14178744,-0.16839966,-0.20948043,0.4096411,0.0028656572,-0.31310833
影剧院,-0.18076326,-0.15056485,-0.20952591,0.3162344,-0.2576689,0.28906524,0.12958904,0.51871514,0.39932096,-0.22134462,-0.345844,-0.25308934,0.3038529,-0.017958175,0.048036937,-0.18559238,0.20690003,-0.07352838,-0.23052332,0.3125299,-0.42030382,0.110935226,-0.12427774,0.08281698,-0.04330724,0.28924656,-0.16521156,0.40022337,0.13070332,0.20464401,0.2277585,-0.35924843,0.25722173,0.16101952,-0.1471484,0.06718093,0.19715218,0.44996038,0.13193588,-0.28355083,0.13607726,0.43917468,0.027144637,0.4066004,0.336299,0.34294495,0.18844944,-0.021605767,0.09979531,-0.18093558,-0.1139601,-0.24875426,0.5109405,-0.25313836,0.19655818,0.08712874,0.1254603,0.124249116,-0.017436095,-0.30296445,-0.038366936,0.14380156,0.23687485,-0.09817325,0.1665881,-0.27262092,-0.17791545,-0.06799812,0.47567695,-0.20497721
疾病预防机构,0.1232584,-0.08410578,-0.06089513,0.02654504,0.4723982,-0.08817813,0.21498021,-0.37296298,0.42920053,0.16596049,-0.23988488,-0.18883036,-0.016685203,-0.17279187,-0.2794661,-0.025145195,0.06989163,-0.3006959,-0.028605454,0.2018283,0.008166745,-0.2713315,0.12801774,-0.34492725,0.23065321,-0.16726169,0.23625842,0.10329813,0.36654013,0.028795302,0.11037733,-0.3254925,0.37878832,-0.08076022,0.11895308,-0.29003516,0.08410847,0.020764042,-0.00016064197,0.27855062,0.089361295,-0.053237364,-0.26228207,0.12504016,0.2593574,-0.058505744,0.16032627,0.03426247,0.005389422,-0.020725429,-0.2227543,0.1203043,-0.0437716,-0.079097144,0.015977686,-0.19151351,0.15132706,0.10235682,-0.025984999,-0.09110589,-0.05693613,0.03094112,-0.004089497,-0.18946637,0.3114325,0.06768806,0.019622704,0.29229683,0.16827148,-0.11776539
公共设施,-0.1034655,-0.03704709,-0.073131114,0.1953313,0.15113217,0.018595535,0.2728366,-0.14562544,0.13152196,-0.22827591,-0.1948503,-0.024069363,0.07485352,-0.23958206,-0.009899826,-0.1611902,0.043750882,-0.08448406,-0.17158574,0.2668707,-0.12594785,-0.15960366,-0.089068316,-0.050307788,0.107164726,0.16696197,-0.0071662217,0.09039791,0.121126086,0.15892375,0.024683781,0.03741121,0.11340749,-0.12258379,-0.080058545,-0.021466114,-0.2263223,0.13688856,0.20495814,-0.06941394,0.24604973,0.030043595,-0.04098702,0.2145493,0.32198247,0.2663842,0.15450272,-0.05545991,0.05815127,-0.05662679,-0.21710153,0.12737772,0.08476921,-0.0873004,0.12384121,-0.093187265,-0.05348312,-0.021586657,-0.15984829,-0.114026435,-0.1336472,0.07781167,0.03193284,-0.12970401,0.0067907423,-0.037822068,-0.008604349,0.15509598,0.049675178,-0.1306926
甜品店,-0.43005848,-0.014055215,-0.101432644,0.22105256,-0.5271666,0.16669117,0.14757036,0.68200266,0.105273105,-0.40805513,-0.27664196,-0.08428099,0.39216053,-0.022586841,0.061776347,-0.27557462,0.047765564,-0.2444426,-0.22024822,0.22759248,-0.36524647,-0.28489125,-0.035127413,0.053356458,0.22851779,0.32261804,-0.2795262,0.22200617,0.13674608,0.33564258,0.07089892,-0.05648251,0.08603562,0.16161944,-0.24816588,-0.17030072,-0.24759308,0.16725166,0.119919255,-0.36444482,0.24236079,0.21255963,0.15695846,0.05110277,0.40143156,0.054839592,0.12679885,-0.26553792,0.17753407,-0.18450868,-0.2563333,0.23094949,0.24508095,-0.44892165,0.19448686,-0.3832102,-0.13118684,-0.0569828,-0.018406779,-0.2953854,-0.087642595,-0.085031115,0.1423895,-0.2108849,-0.0031376854,-0.24143365,-0.2667414,0.15872358,0.42277393,-0.37909576
通用特约销售,0.6946992,-0.19068167,-0.15783817,0.2129245,-0.043133438,0.054751657,-0.09196536,-0.24796255,-0.01921613,-0.07936674,-0.21283118,-0.14290051,0.14544728,-0.22740087,-0.07802664,-0.06320353,0.2285265,-0.04482511,-0.1661716,-0.24837688,0.031212062,0.06012275,-0.15683457,0.08079754,0.1539892,-0.13432385,-0.21890852,6.759167e-05,0.25269356,0.21838324,0.1269998,0.16242644,0.09252808,0.02546931,0.078656696,0.006617248,0.0937892,0.19470853,-0.15596779,0.11964272,0.057589874,0.32120728,-0.07297986,0.029257245,0.052322015,-0.13546567,0.00010752026,-0.008531183,0.08912539,0.17897844,-0.028682575,-0.059934847,0.28277296,-0.057157323,0.09581952,-0.18858567,-0.27718568,-0.022898845,-0.014194995,-0.041403506,0.044441134,0.18333095,-0.106143765,-0.17821664,-0.0099539645,-0.17323938,-0.1305685,0.11514979,-0.27928334,-0.05578991
展览馆,0.3388013,-0.105909444,-0.25185308,0.32324156,0.11906578,0.06269981,0.1780248,0.30513695,0.4728014,0.076583266,-0.3088522,-0.29016417,0.35967213,-0.43613642,0.008927833,-0.06697142,0.13336994,0.08911339,-0.43261364,0.3904686,-0.41593117,-0.037076354,-0.36372933,0.012806583,0.052530747,0.1523251,0.04858571,0.33229598,0.14995688,0.36799213,0.016892206,-0.33138096,-0.050375797,0.0477387,-0.22950208,-0.24948338,0.1603222,0.26982018,-0.15977652,-0.20724697,0.16632721,0.4967779,-0.23160891,0.3933609,-0.099479504,-0.15543517,0.07016131,-0.046929695,-0.105740495,0.2500515,-0.38440126,0.12932795,0.5771855,-0.19335414,0.18737075,-0.3616578,-0.06086797,-0.08404224,0.17905577,-0.22284865,-0.18029907,0.044333566,0.20610908,-0.31838417,0.3106292,-0.303378,-0.3465566,0.16346765,0.260955,0.32474965
货车销售,0.66075337,-0.15090251,-0.0895595,0.06252636,0.027158767,-0.13901661,0.011654968,-0.28386042,-0.112557635,-0.26586798,-0.12028301,-0.18347362,-0.03907206,-0.10297375,-0.097978815,0.029572526,0.12528893,-0.06450998,-0.030045807,-0.23031306,-0.06894283,0.0754924,0.06615708,-0.0833785,0.009314384,0.00036769547,-0.16519773,-0.100791134,0.11878857,0.17989102,-0.009352267,0.08996777,-0.21527465,-0.1135476,-0.10406111,-0.14714324,0.09604259,0.0015524775,-0.1449771,0.0064899363,0.15244369,-0.027437165,-0.03945376,-0.12020164,-0.019762363,-0.15829965,0.22802898,0.029491112,0.08714874,0.029125392,0.008875348,-0.16648632,0.07899029,-0.09905417,-0.04071285,-0.03316108,-0.12903525,-0.059042662,0.06454052,0.13262326,0.10566458,0.102399826,0.08202711,0.06870596,0.048831612,-0.20206094,-0.17290042,0.19875336,-0.28524253,-0.1397135
自来水营业厅,0.16201776,-0.17046857,-0.1151641,-0.043934807,0.26492807,-0.024302304,0.014839964,-0.51575536,0.17911232,-0.034498066,-0.12900299,-0.1256915,0.0034339726,-0.014397636,-0.14618002,0.19381449,0.092866346,-0.120721824,-0.0304547,0.18135372,-0.027635269,-0.3237911,-0.15327844,-0.11531989,0.19348918,-0.108262755,0.033094376,0.24222067,0.11056696,-0.08983619,-0.03241087,-0.024430072,0.0486257,-0.16803387,0.058445048,-0.17914769,0.056087837,0.090996265,0.22990115,0.04071509,7.3574483e-06,-0.060527157,-0.25558746,-0.0858811,-0.20967987,-0.05968681,-0.11484685,-0.2282869,-0.091697656,0.20850708,0.00031125918,-0.044975672,-0.06992771,-0.13947807,0.09453768,-0.23439297,-0.16944614,0.05751162,0.21485728,-0.16083404,-0.1487847,0.2521875,-0.034413673,-0.31582716,0.020426989,-0.15959163,-0.015524205,0.13054064,0.14044797,0.09217428
江淮销售,-0.0032901913,0.19059211,-0.14546752,0.229082,-0.12496777,-0.16216493,0.02624134,-0.19466901,-0.039446298,-0.13892025,0.07445503,-0.09507164,-0.20278746,-0.08296731,-0.16177124,0.09627115,-0.010095788,-0.0752427,-0.024616674,-0.11180526,0.025430135,-0.16483437,-0.013606526,-0.12643829,-0.020178244,-0.121348575,-0.07760935,0.04510294,-0.02107775,-0.024705686,-0.14028001,0.19512445,0.09362977,0.047881268,-0.17949273,-0.060741853,0.052322283,-0.094653994,0.12816107,-0.12388501,-0.11345925,-0.11736831,-0.084727295,0.057626244,-0.08780641,-0.1950776,-0.07567133,-0.039384212,-0.025836727,-0.08611794,0.01599047,-0.07355285,-0.0070414394,-0.03326494,0.116696015,0.17070661,-0.057664655,-0.19286393,0.45487106,-0.027956113,-0.21530461,0.13339563,0.11134244,-0.0021447176,-0.0018383209,-0.0004948117,-0.14545973,0.04959418,0.12166243,0.087486416
证券公司,-0.18970904,-0.26518023,-0.19250605,0.36590025,-0.23278677,0.25198624,0.081086695,0.34262502,0.075159736,-0.001775831,-0.2892434,-0.038116142,0.37827635,-0.26491183,-0.29575107,-0.38727456,0.36989522,-0.08989896,0.058730878,-0.23342338,-0.054981705,0.1708442,-0.2403279,-0.2055494,0.18104307,0.1277941,-0.3334294,0.32763878,0.19722012,0.15614632,-0.109756514,0.08188568,0.2211538,-0.21532351,-0.37073308,-0.16625847,0.008597907,0.26797017,0.119175225,-0.31352815,0.25804216,0.121641584,-0.4633971,0.13196313,0.15967104,0.33589944,0.08505947,-0.37570012,0.19366114,-0.021508537,-0.28477347,0.35571375,-0.4509536,-0.40105063,0.28674608,-0.33102137,-0.3328521,0.18153244,-0.40946597,-0.29612082,-0.3325688,0.22626552,0.19888738,-0.350669,0.26275387,0.025815802,-0.18994951,0.0022857487,0.30597484,0.27610373
信息咨询中心,-0.14837137,0.2559416,-0.069158494,0.17365813,-0.20007914,0.17483306,0.05503153,0.078276716,-0.009272084,-0.12068334,-0.22530076,0.012160435,0.13238657,-0.13758641,0.19875138,-0.02910952,0.1463956,-0.1348104,-0.24246341,0.23222499,-0.32309204,-0.19887565,-0.389774,0.20445043,0.0498097,-0.15164499,0.030338805,-0.018205285,0.15877023,0.14278428,0.21063204,0.058711432,0.33366656,0.46382302,-0.020558754,-0.12156388,-0.025697008,0.012381981,-0.04816795,-0.36943233,0.2252019,0.37931317,0.02442177,0.06026981,-0.0979801,-0.073585205,0.23873295,0.009300858,0.044357948,-0.07819541,-0.30379546,0.010059707,0.17359461,-0.121790566,0.1335132,-0.2070462,0.22738391,0.02276358,0.012575028,-0.13092755,-0.083399445,-0.49442822,-0.013665594,-0.034264214,0.084156305,-0.14519706,-0.2746362,0.07502205,0.35663342,0.100571044
图书馆,0.06392754,-0.34152305,-0.23626663,0.46641248,0.43291485,0.22542791,0.49102968,-0.19482039,-0.055267584,0.1309642,-0.2217984,-0.25786915,0.20907149,-0.42043227,-0.2284809,-0.21838331,0.34800822,-0.3708166,-0.2609103,0.38875127,0.10719853,0.04540276,-0.34195042,-0.1972628,-0.25707918,-0.012145681,-0.2807966,0.29216027,0.08006291,0.17367637,0.48815393,-0.3203561,0.2602935,-0.4112049,-0.32900965,-0.13584056,0.15618706,0.014766111,0.12592146,-0.11517638,0.3510455,0.17550313,0.0018255549,0.09729402,0.12305032,0.41478738,-0.38893393,0.21795242,-0.09488423,0.18347101,-0.25297272,0.011224371,0.5624327,-0.07849602,0.05403386,-0.29736054,0.46526587,0.042299658,0.2005599,-0.20686802,-0.035872124,-0.22091499,0.26922435,-0.42751947,0.52848226,0.08696829,0.015057953,0.070067674,0.34189153,-0.19696924
文艺团体,0.27296227,-0.007072404,-0.18170479,0.22583288,-0.19316964,0.26437086,0.10258101,-0.07282762,0.15422128,-0.14708674,-0.22991869,0.04350283,0.32348347,-0.055243142,-0.32622144,-0.07461323,0.27236336,-0.14226504,-0.09994227,0.05404026,-0.17626627,-0.028726555,0.22814262,-0.27254534,0.29885602,-0.029648121,-0.32568604,-0.040224798,0.32732964,0.14198458,0.1180906,-0.5784501,0.28897843,-0.2774564,0.024946991,-0.0072011594,0.2413487,0.15985246,0.08134926,-0.3943026,0.089441404,-0.010030142,0.27496108,0.28174683,0.11791625,0.47301394,-0.19541392,0.22320125,0.18080756,0.016034037,-0.020824518,-0.38938355,0.2521137,-0.09297487,0.041373625,0.2209207,-0.04447208,0.086615585,0.11657863,-0.05732926,-0.06746352,0.04102338,0.10011284,0.001124952,0.512019,-0.23640382,-0.19420671,-0.046387374,0.1687268,-0.00072697224
摩托车销售,0.40515622,0.14944015,-0.21317673,-0.033505686,-0.045828536,0.23091885,0.16102661,-0.6136871,0.2304179,-0.10480102,-0.009622142,-0.07132811,0.14160061,0.2639148,-0.18440467,-0.053556345,0.18377815,0.0371525,-0.12066197,0.26591507,-0.33429307,-0.11563984,-0.13219361,0.26387513,0.11866705,-0.10138124,-0.12696624,0.10481066,0.27160266,-0.044130944,0.25183758,0.40750077,0.11580126,-0.0009287037,-0.08910482,-0.12419342,-0.33164024,0.1446223,0.41642255,-0.2677256,0.3548879,0.21648836,-0.14992112,0.26842523,0.12914622,0.16774556,-0.3085754,-0.2874173,-0.25952497,-0.24795425,-0.23087814,0.13243428,-0.25907677,0.014978586,-0.02930144,-0.23210739,0.17750052,0.06947689,0.17708278,-0.21121255,-0.17614026,0.27744618,-0.00043655746,-0.3703673,-0.15853234,-0.24094272,-0.053043243,0.11604792,-0.05841376,-0.22233218
摩托车服务相关,0.35892582,-0.04673949,-0.24623099,0.074596345,-0.035632297,0.23296756,0.27400294,-0.5334356,0.3402374,-0.09674768,-0.1645785,-0.1371693,0.19333734,0.17455691,-0.17065066,0.04968734,-0.04867656,-0.0732757,-0.07518825,0.34856948,-0.27949724,-0.001022147,-0.07486326,0.4431441,0.0057540275,0.16735066,-0.15903293,0.19051024,0.34045932,-0.0071358755,0.3042689,0.59067774,0.07856484,0.3370763,-0.222844,-0.15972346,-0.30439925,0.18414918,0.45716277,-0.12791863,0.33396858,0.24568407,-0.243628,0.21196759,0.12276983,0.24895795,-0.1477349,-0.41508335,-0.32871845,-0.3242842,-0.2704234,0.067328826,-0.24657434,0.090110935,-0.082783625,-0.15971638,-0.04412274,0.08852215,0.18019845,-0.1677705,-0.32740974,0.44233364,0.28193814,-0.33358437,-0.30805832,-0.20675592,-0.02702025,0.11950801,-0.25345373,-0.19797786
美术馆,0.14499916,-0.35256645,-0.18120101,0.0756633,-0.08249916,0.21468472,0.07349446,0.2647288,0.35470966,-0.20779017,-0.3775807,0.061610907,0.43925095,-0.25274158,0.116659634,-0.20895691,0.3387276,-0.15698609,-0.0556673,0.28301537,-0.1591465,-0.048208628,0.012768505,0.10678381,0.07015925,-0.18031779,-0.14051065,0.37660146,0.2677026,0.090146795,0.117695905,-0.2885607,0.2354106,-0.20925705,-0.2583532,-0.15595092,0.3276194,0.006084767,-0.11103029,-0.13519922,0.0978044,0.26449326,-0.2693122,0.19730411,0.08171992,0.19804823,0.12255345,-0.29118192,0.05378933,0.053018883,-0.22449231,-0.040734053,0.11328733,-0.2862122,0.20863102,0.13102761,-0.17464167,-0.09892163,0.024159707,-0.30693316,0.00031582452,0.22546826,0.29573706,-0.29413003,0.43497145,-0.24928407,-0.28573138,0.006012014,-0.09134228,0.088069804
科技馆,0.0998694,-0.21662608,-0.14986181,0.18722658,0.06875019,0.16772191,0.115494534,0.2612809,0.016905554,-0.14023012,-0.06762487,0.14482524,0.14973186,0.0124813765,0.002689329,-0.22209346,0.22207487,-0.11528444,-0.14413393,0.3405604,0.10617122,-0.13486442,-0.028864507,-0.22021309,0.20696199,-0.091600165,-0.17328195,0.07166659,0.1521807,0.054626614,0.18703303,-0.24840233,0.12082605,-0.20923449,-0.036559742,-0.055760853,-0.08439256,0.0911809,-0.05980338,-0.18958785,0.069967,0.23800081,0.11668269,-0.010614213,-0.045974184,0.08326189,0.12808576,-0.0058701634,-0.058501683,0.11580689,0.0040474404,-0.030051982,0.1471041,0.04155966,0.0472036,-0.033036385,0.15991102,-0.12888013,0.053770117,-0.22484808,-0.048150256,-0.15569869,-0.035399962,-0.12999637,0.29384834,-0.124075636,-0.19526258,0.013560701,0.065974995,0.1437616
起亚特约维修,-0.0739863,0.02458977,0.010110195,-0.06403497,0.21300682,0.024611153,-0.10816059,0.22187598,0.25912845,0.051911138,-0.0651894,0.12799515,0.05055269,-0.040741526,-0.11247455,-0.067195155,0.08322883,-0.09525572,-0.022828769,0.0026837736,0.05881327,0.05541323,0.005603237,-0.25910044,0.019467153,-0.19814864,0.1786957,0.04912963,0.12636933,-0.035407007,0.1162159,0.10289757,0.31810397,0.114698425,0.042992927,-0.22389138,0.22602767,-0.008392643,0.06328447,-0.14657964,-0.23120739,-0.0002568178,-0.06321793,-0.11977824,-0.0062687434,0.039184764,-0.4286242,0.13968995,-0.059404217,0.2891985,-0.07334499,-0.030933948,0.13649663,0.25651225,0.012295816,-0.031263933,0.26647034,0.1874193,-0.22997683,-0.0046008304,0.11738473,-0.04168265,-0.10419857,-0.08457671,0.121099435,0.23982428,-0.1791667,-0.037083883,0.0758183,0.25215438
档案馆,0.24482286,-0.2539398,-0.29431796,0.037515685,0.3316195,0.12340958,0.051389027,-0.35845459,0.08401497,0.21118252,-0.3350198,-0.1515803,-0.017942011,-0.11888154,-0.2641347,-0.12451989,0.24076517,-0.16498695,0.017100519,0.1902854,0.12175591,0.10320385,-0.19268432,-0.3351261,0.33939803,-0.11392228,-0.09393468,-0.062424824,0.21303093,0.17091629,-0.15861869,-0.38036084,0.099540554,-0.58924115,0.17874405,-0.14378268,0.39006674,-0.040488083,0.20431556,-0.09939803,-0.081118815,0.03682313,-0.06645177,0.21673568,0.092578284,0.24599284,-0.2557027,0.20684245,-0.26865304,-0.014508091,-0.08686499,-0.061673127,0.33111346,0.096196935,0.21685363,-0.076312296,-0.060351986,0.089607626,-0.12354222,-0.3177821,-0.011697471,0.07845287,0.014908503,-0.060906604,0.4134335,0.06582187,-0.25881022,-0.069199346,0.07241796,0.47639287
博物馆,0.4062103,-0.06752123,-0.1709795,0.3778886,0.028828353,0.15919974,0.2129288,0.14280584,0.033563808,-0.123885356,-0.31656015,-0.072471924,0.36507773,-0.096977964,-0.11455328,-0.044717386,0.2722312,0.074179806,-0.24879509,0.2288401,-0.20350218,-0.095106706,-0.29144132,-0.14542906,0.0049279826,-0.27658677,-0.20384887,0.2811702,0.34516084,0.052102678,0.16902624,-0.4907968,0.26338586,-0.5062867,0.11254126,0.028049266,0.22212951,0.0713245,-0.012813054,-0.15944985,-0.018562598,0.33737278,0.050389636,0.106892236,0.117790654,0.14533855,0.046913095,0.08689886,0.0019366145,-0.0047409683,-0.14409328,0.0075372914,0.1285196,-0.20766878,0.32274842,0.16089913,-0.07278694,-0.013377011,-0.028809927,-0.23609936,-0.207555,0.09134029,-0.0018771384,-0.3003315,0.3701285,-0.06628025,-0.20681906,-0.021829154,0.058638554,0.104355685
急救中心,-0.029892318,0.0532216,-0.02153293,0.0599372,0.58738536,-0.11507893,0.44059336,-0.3065365,0.051792815,0.32686073,-0.19786522,-0.26565295,-0.06523973,-0.3079544,-0.039293684,-0.08966339,0.19956458,-0.1889576,-0.23893526,0.06666468,-0.22729872,-0.29797566,0.0646566,-0.19403253,0.21961157,-0.26185068,-0.023614846,0.1646441,0.10321933,0.094650686,0.19202429,-0.323573,0.30148727,0.108017184,0.6314621,-0.1688893,0.08620067,-0.043032363,-0.019627836,0.03973434,0.17754626,0.18521328,-0.120156795,-0.10108952,0.09759897,0.09257786,0.29717922,0.32947898,0.20153937,0.09175107,-0.35002428,0.116636425,-0.0996414,-0.34658277,0.20562343,-0.16508624,0.03285005,0.123499304,-0.23678805,-0.15243852,0.11266488,-0.17010023,0.12237515,0.025018362,0.113299154,-0.11895158,-0.28754634,0.19427232,0.13356668,0.1522816
汽车俱乐部,0.44341356,-0.082729794,-0.09141834,-0.037846494,0.05224675,0.06559095,-0.17552759,-0.31246606,-0.023883112,-0.088033386,-0.021090832,-0.24680898,0.071413055,-0.049977135,-0.18864493,-0.076278,0.19036707,0.012819345,-0.12499676,0.07817366,0.037070632,-0.059860334,-0.18316743,0.13615637,0.07796268,0.08978237,-0.023932755,-0.06273211,0.16405724,0.004322741,0.15385178,0.26251197,0.04030879,-0.14891884,-0.041332223,0.067384675,-0.13789856,0.22620596,-0.19168597,0.09103349,0.052833762,0.23966083,-0.0547259,-0.03280986,-0.03920014,-0.07773607,0.22226092,-0.092222095,0.1439539,0.08837731,0.02490307,-0.006884454,-0.03855371,-0.08418976,0.13387075,-0.06276937,-0.23065495,-0.13662386,0.1108954,0.048581194,-0.18457624,0.23830521,0.1598277,-0.21563287,-0.0733805,-0.046621144,-0.07530858,0.16825005,-0.19646245,-0.13013561
搬家公司,0.27091628,-0.09158532,-0.09807282,0.14142102,-0.026140511,0.08223158,-0.058670424,-0.50419915,0.13769254,-0.1660457,-0.14002258,-0.07174179,0.0673288,-0.054897193,0.10110734,-0.112129755,-0.08640996,-0.07126657,-0.063077845,0.10630228,-0.08311344,0.00827623,-0.034456387,-0.0338466,0.096865796,0.10149874,-0.034288205,0.14552082,-0.0025479216,-0.01951943,0.08850743,0.25257203,-0.036669984,-0.13784593,-0.021810228,-0.10515051,-0.051058054,0.12570244,-0.13558176,-0.009572007,0.012972839,0.24177957,-0.29008013,0.07480331,0.09159936,0.083821625,0.049923994,-0.29711115,0.040542044,0.05224696,-0.023580035,-0.17395923,0.07522497,0.021760985,0.11340776,-0.085161574,-0.26023734,0.057224423,0.086205214,-0.13196692,-0.20755085,0.18476212,0.019789167,-0.25908333,0.09752358,-0.11847509,-0.01915623,0.18620688,0.050882004,0.08662729
大众特约销售,0.61610687,-0.218779,-0.13057767,0.12597914,-0.10512024,-0.10757718,-0.10061395,-0.29839525,-0.09798867,-0.22870842,-0.062647805,-0.13127251,0.08755495,-0.18102156,-0.19168144,0.14956123,0.09981018,-0.17888007,-0.041090384,-0.2470032,-0.14076775,0.22341035,-0.18524858,0.14098395,0.21959057,0.033368114,-0.09179489,0.0458579,0.32751676,0.12170703,0.058523394,0.28799844,0.0036083255,0.18773654,-0.013230145,-0.17612816,0.055164773,0.2253907,0.17811345,0.13401781,0.05002765,0.18192625,-0.20390317,-0.0071977973,0.094586045,-0.0676632,0.114306085,-0.24362503,0.047874786,-0.072937936,-0.12387353,-0.09631673,0.044351235,-0.18473123,0.049256355,-0.029463522,-0.32297638,0.27254626,-0.21752469,0.026218895,-0.018690377,0.15586914,0.23853841,-0.22042781,-0.14927554,-0.32934436,0.0028350167,0.24945559,-0.14020759,-0.1641853
